svm_type epsilon_svr
kernel_type rbf
gamma 32
nr_class 2
total_sv 5320
rho -51.774
SV
-0.53125 1:1 2:-1 3:0.551771 4:0.419982 7:-0.5 8:-1 9:-1 10:-1 11:-1 12:-1 13:-1 14:-0.75 16:-0.5 17:-1 18:-1 19:-1 20:-1 21:-1 22:-1 23:-1 24:-1 25:-1 26:-1 27:-1 28:-1 29:-1 30:-1 31:-1 32:-1 33:-1 34:-1 35:-0.75 37:-0.25 39:1 40:-0.25 
-0.53125 1:1 2:-1 3:0.551771 4:0.419982 5:-1 6:-1 7:-1 8:-1 9:-1 10:-1 12:1 13:-0.25 14:-0.75 16:-0.25 17:-1 18:-1 19:-1 20:-1 21:-1 22:-1 23:-1 24:-1 25:-1 26:-0.75 28:-0.5 29:-1 30:-1 31:-1 34:-0.5 35:-1 36:-1 37:-1 38:-1 39:-1 40:-1 
-0.53125 1:1 2:-1 3:0.551771 4:0.419982 5:-1 6:-1 7:-1 8:-1 9:-1 10:-1 12:1 13:-0.25 14:-1 15:-1 16:-1 17:-1 18:-1 19:-1 22:-0.5 23:-0.75 25:-0.25 26:-0.75 28:-0.5 29:-1 30:-1 31:-1 32:-1 33:-1 34:-1 35:-1 36:-1 37:-1 38:-1 39:-1 40:-1 
-0.53125 1:1 2:-1 3:0.551771 4:0.419982 5:-1 6:-1 7:-1 8:-1 9:-1 10:-1 11:-0.75 13:-0.25 16:-0.5 17:-0.75 19:-0.5 20:-1 21:-1 22:-1 23:-1 24:-1 25:-1 26:-1 27:-1 28:-1 29:-1 30:-1 31:-1 32:-1 33:-1 34:-1 36:1 37:-0.25 38:-1 39:-1 40:-1 
-0.53125 1:1 2:-1 3:0.551771 4:0.419982 6:1 7:-0.25 8:-1 9:-1 10:-1 13:-0.5 14:-0.75 16:-0.5 17:-1 18:-1 19:-1 20:-1 21:-1 22:-1 23:-1 24:-1 25:-1 26:-1 27:-1 28:-1 29:-0.75 31:-0.25 32:-1 33:-1 34:-1 35:-1 36:-1 37:-1 38:-1 39:-1 40:-1 
-0.53125 1:1 2:-1 3:0.551771 4:0.419982 5:-1 6:-1 7:-1 8:-1 9:-1 10:-1 11:-1 12:-1 13:-1 14:-0.75 16:-0.25 17:-1 18:-1 19:-1 20:-1 21:-1 22:-1 23:-1 24:-1 25:-1 26:-0.75 28:-0.5 30:1 31:-0.25 32:-1 33:-1 34:-1 37:-0.5 38:-1 39:-1 40:-1 
-0.53125 1:1 2:-1 3:0.551771 4:0.419982 5:-1 6:-1 7:-1 8:-1 9:-1 10:-1 12:1 13:-0.25 14:-0.75 16:-0.5 17:-1 18:-1 19:-1 22:-0.5 23:-1 24:-1 25:-1 26:-0.75 28:-0.25 29:-1 30:-1 31:-1 32:-1 33:-1 34:-1 35:-1 36:-1 37:-1 38:-1 39:-1 40:-1 
-0.53125 1:1 2:-1 3:0.551771 4:0.419982 5:-1 6:-1 7:-1 8:-1 9:-1 10:-1 11:-1 12:-1 13:-1 14:-1 15:-1 16:-1 17:-1 18:-1 19:-1 20:-0.75 22:-0.25 25:-0.5 26:-1 27:-1 28:-1 29:-1 30:-1 31:-1 32:-0.75 34:-0.5 36:1 37:-0.25 38:-1 39:-1 40:-1 
-0.53125 1:1 2:-1 3:0.551771 4:0.419982 5:-1 6:-1 7:-1 8:-0.75 10:-0.5 11:-1 12:-1 13:-1 14:-1 15:-1 16:-1 17:-1 18:-1 19:-1 21:1 22:-0.25 23:-0.75 25:-0.25 26:-1 27:-1 28:-1 29:-1 30:-1 31:-1 34:-0.5 35:-1 36:-1 37:-1 38:-1 39:-1 40:-1 
-0.53125 1:1 2:-1 3:0.551771 4:0.419982 5:-1 6:-1 7:-1 8:-1 9:-1 10:-1 11:-1 12:-1 13:-1 14:-1 15:-1 16:-1 17:-1 18:-1 19:-1 20:-1 21:-1 22:-1 23:-1 24:-1 25:-1 28:-0.5 29:-0.75 31:-0.25 32:-0.75 34:-0.5 36:1 37:-0.25 38:-1 39:-1 40:-1 
-0.53125 1:1 2:-1 3:0.551771 4:0.419982 5:-1 6:-1 7:-1 8:-1 9:-1 10:-1 12:1 13:-0.25 14:-0.75 16:-0.5 19:-0.5 20:-1 21:-1 22:-1 23:-1 24:-1 25:-1 26:-1 27:-1 28:-1 29:-1 30:-1 31:-1 32:-0.75 34:-0.25 35:-1 36:-1 37:-1 38:-1 39:-1 40:-1 
-0.53125 1:1 2:-1 3:0.551771 4:0.419982 5:-1 6:-1 7:-1 8:-1 9:-1 10:-1 11:-1 12:-1 13:-1 14:-1 15:-1 16:-1 17:-1 18:-1 19:-1 20:-0.75 22:-0.25 23:-1 24:-1 25:-1 28:-0.5 29:-1 30:-1 31:-1 32:-1 33:-1 34:-1 36:1 37:-0.25 38:-0.75 40:-0.5 
-0.53125 1:1 2:-1 3:0.551771 4:0.419982 7:-0.5 8:-1 9:-1 10:-1 11:-1 12:-1 13:-1 14:-0.75 16:-0.5 17:-1 18:-1 19:-1 20:-1 21:-1 22:-1 23:-1 24:-1 25:-1 26:-1 27:-1 28:-1 29:-0.75 31:-0.25 32:-1 33:-1 34:-1 35:-1 36:-1 37:-1 39:1 40:-0.25 
-0.53125 1:1 2:-1 3:0.551771 4:0.419982 5:-1 6:-1 7:-1 8:-1 9:-1 10:-1 11:-1 12:-1 13:-1 14:-1 15:-1 16:-1 17:-0.75 19:-0.5 21:1 22:-0.25 23:-1 24:-1 25:-1 26:-0.75 28:-0.25 29:-1 30:-1 31:-1 34:-0.5 35:-1 36:-1 37:-1 38:-1 39:-1 40:-1 
-0.53125 1:1 2:-1 3:0.551771 4:0.419982 5:-0.75 7:-0.25 8:-1 9:-1 10:-1 11:-1 12:-1 13:-1 14:-0.75 16:-0.5 17:-1 18:-1 19:-1 20:-1 21:-1 22:-1 23:-1 24:-1 25:-1 26:-1 27:-1 28:-1 29:-1 30:-1 31:-1 33:1 34:-0.25 35:-1 36:-1 37:-1 40:-0.5 
-0.53125 1:1 2:-1 3:0.551771 4:0.419982 5:-1 6:-1 7:-1 8:-0.75 10:-0.5 13:-0.5 15:1 16:-0.25 17:-1 18:-1 19:-1 20:-1 21:-1 22:-1 23:-1 24:-1 25:-1 26:-1 27:-1 28:-1 29:-1 30:-1 31:-1 32:-0.75 34:-0.25 35:-1 36:-1 37:-1 38:-1 39:-1 40:-1 
-0.53125 1:1 2:-1 3:0.551771 4:0.419982 5:-1 6:-1 7:-1 8:-1 9:-1 10:-1 11:-0.75 13:-0.25 14:-1 15:-1 16:-1 17:-1 18:-1 19:-1 20:-1 21:-1 22:-1 23:-1 24:-1 25:-1 26:-0.75 28:-0.5 31:-0.5 32:-1 33:-1 34:-1 36:1 37:-0.25 38:-1 39:-1 40:-1 
-0.53125 1:1 2:-1 3:0.551771 4:0.419982 5:-1 6:-1 7:-1 8:-1 9:-1 10:-1 11:-1 12:-1 13:-1 16:-0.5 17:-0.75 19:-0.25 20:-1 21:-1 22:-1 23:-1 24:-1 25:-1 27:1 28:-0.25 29:-1 30:-1 31:-1 32:-0.75 34:-0.5 35:-1 36:-1 37:-1 38:-1 39:-1 40:-1 
-0.53125 1:1 2:-1 3:0.551771 4:0.419982 5:-0.75 7:-0.25 8:-1 9:-1 10:-1 11:-1 12:-1 13:-1 16:-0.5 17:-1 18:-1 19:-1 20:-1 21:-1 22:-1 23:-0.75 25:-0.5 26:-1 27:-1 28:-1 29:-1 30:-1 31:-1 32:-1 33:-1 34:-1 36:1 37:-0.25 38:-1 39:-1 40:-1 
-0.53125 1:1 2:-1 3:0.551771 4:0.419982 5:-1 6:-1 7:-1 8:-1 9:-1 10:-1 11:-1 12:-1 13:-1 14:-1 15:-1 16:-1 18:1 19:-0.25 22:-0.5 23:-1 24:-1 25:-1 26:-1 27:-1 28:-1 29:-1 30:-1 31:-1 32:-1 33:-1 34:-1 35:-0.75 37:-0.25 38:-0.75 40:-0.5 
-0.53125 1:1 2:-1 3:0.551771 4:0.419982 5:-0.75 7:-0.25 8:-1 9:-1 10:-1 11:-1 12:-1 13:-1 14:-0.75 16:-0.5 17:-1 18:-1 19:-1 20:-1 21:-1 22:-1 23:-1 24:-1 25:-1 26:-1 27:-1 28:-1 31:-0.5 33:1 34:-0.25 35:-1 36:-1 37:-1 38:-1 39:-1 40:-1 
-0.53125 1:1 2:-1 3:0.551771 4:0.419982 5:-0.75 7:-0.25 8:-1 9:-1 10:-1 11:-1 12:-1 13:-1 14:-1 15:-1 16:-1 18:1 19:-0.25 22:-0.5 23:-0.75 25:-0.5 26:-1 27:-1 28:-1 29:-1 30:-1 31:-1 32:-1 33:-1 34:-1 35:-1 36:-1 37:-1 38:-1 39:-1 40:-1 
-0.53125 1:1 2:-1 3:0.551771 4:0.419982 5:-1 6:-1 7:-1 10:-0.5 11:-1 12:-1 13:-1 14:-1 15:-1 16:-1 17:-0.75 19:-0.25 20:-1 21:-1 22:-1 23:-1 24:-1 25:-1 26:-0.75 28:-0.5 29:-1 30:-1 31:-1 32:-1 33:-1 34:-1 35:-1 36:-1 37:-1 39:1 40:-0.25 
-0.53125 1:1 2:-1 3:0.551771 4:0.419982 6:1 7:-0.25 8:-1 9:-1 10:-1 11:-1 12:-1 13:-1 14:-1 15:-1 16:-1 19:-0.5 20:-0.75 22:-0.5 23:-1 24:-1 25:-1 26:-1 27:-1 28:-1 29:-1 30:-1 31:-1 32:-0.75 34:-0.25 35:-1 36:-1 37:-1 38:-1 39:-1 40:-1 
-0.53125 1:1 2:-1 3:0.551771 4:0.419982 5:-1 6:-1 7:-1 8:-1 9:-1 10:-1 11:-1 12:-1 13:-1 14:-1 15:-1 16:-1 17:-1 18:-1 19:-1 21:1 22:-0.25 23:-1 24:-1 25:-1 26:-0.75 28:-0.25 31:-0.5 32:-1 33:-1 34:-1 35:-0.75 37:-0.5 38:-1 39:-1 40:-1 
-0.53125 1:1 2:-1 3:0.551771 4:0.419982 5:-0.75 7:-0.25 8:-1 9:-1 10:-1 11:-1 12:-1 13:-1 16:-0.5 17:-1 18:-1 19:-1 20:-0.75 22:-0.5 23:-1 24:-1 25:-1 27:1 28:-0.25 29:-1 30:-1 31:-1 32:-1 33:-1 34:-1 35:-1 36:-1 37:-1 38:-1 39:-1 40:-1 
-0.53125 1:1 2:-1 3:0.551771 4:0.419982 7:-0.5 8:-0.75 10:-0.5 12:1 13:-0.25 14:-1 15:-1 16:-1 17:-1 18:-1 19:-1 20:-1 21:-1 22:-1 23:-1 24:-1 25:-1 26:-1 27:-1 28:-1 29:-1 30:-1 31:-1 32:-1 33:-1 34:-1 35:-1 36:-1 37:-1 38:-0.75 40:-0.25 
-0.53125 1:1 2:-1 3:0.551771 4:0.419982 5:-1 6:-1 7:-1 8:-1 9:-1 10:-1 11:-0.75 13:-0.5 14:-1 15:-1 16:-1 17:-1 18:-1 19:-1 21:1 22:-0.25 23:-1 24:-1 25:-1 26:-1 27:-1 28:-1 29:-1 30:-1 31:-1 32:-0.75 34:-0.25 37:-0.5 38:-1 39:-1 40:-1 
-0.53125 1:1 2:-1 3:0.551771 4:0.419982 7:-0.5 8:-0.75 10:-0.5 11:-1 12:-1 13:-1 14:-0.75 16:-0.25 17:-1 18:-1 19:-1 20:-1 21:-1 22:-1 23:-1 24:-1 25:-1 27:1 28:-0.25 29:-1 30:-1 31:-1 32:-1 33:-1 34:-1 35:-1 36:-1 37:-1 38:-1 39:-1 40:-1 
-0.53125 1:1 2:-1 3:0.551771 4:0.419982 5:-1 6:-1 7:-1 8:-0.75 10:-0.5 11:-1 12:-1 13:-1 14:-1 15:-1 16:-1 18:1 19:-0.25 20:-1 21:-1 22:-1 23:-1 24:-1 25:-1 26:-1 27:-1 28:-1 29:-1 30:-1 31:-1 32:-1 33:-1 34:-1 37:-0.5 38:-0.75 40:-0.25 
-0.53125 1:1 2:-1 3:0.482289 4:0.363395 5:-1 6:-1 7:-1 8:-0.75 9:1 10:-0.5 11:-1 12:-1 13:-1 14:-0.75 15:1 16:-0.5 17:-0.75 18:1 19:-0.5 20:-1 21:-1 22:-1 23:-1 24:-1 25:-1 26:-1 27:-1 28:-1 30:1 31:-0.25 32:-1 33:-1 34:-1 35:-1 36:-1 37:-1 38:-1 39:-1 40:-1 
-0.53125 1:1 2:-1 3:0.482289 4:0.363395 5:-0.75 6:1 7:-0.5 9:1 10:-0.25 11:-1 12:-1 13:-1 14:-1 15:-1 16:-1 17:-1 18:-1 19:-1 20:-1 21:-1 22:-1 23:-1 24:-1 25:-1 26:-0.75 27:1 28:-0.5 29:-1 30:-1 31:-1 32:-1 33:-1 34:-1 35:-1 36:-1 37:-1 38:-0.75 39:1 40:-0.5 
-0.53125 1:1 2:-1 3:0.482289 4:0.363395 5:-0.75 6:1 7:-0.5 8:-1 9:-1 10:-1 11:-1 12:-1 13:-1 15:1 16:-0.25 17:-1 18:-1 19:-1 20:-0.75 21:1 22:-0.5 23:-1 24:-1 25:-1 26:-1 27:-1 28:-1 29:-1 30:-1 31:-1 32:-1 33:-1 34:-1 35:-0.75 36:1 37:-0.5 38:-1 39:-1 40:-1 
-0.53125 1:1 2:-1 3:0.482289 4:0.363395 5:-1 6:-1 7:-1 8:-0.75 9:1 10:-0.5 11:-1 12:-1 13:-1 14:-1 15:-1 16:-1 18:1 19:-0.25 20:-0.75 21:1 22:-0.5 23:-1 24:-1 25:-1 26:-1 27:-1 28:-1 29:-0.75 30:1 31:-0.5 32:-1 33:-1 34:-1 35:-1 36:-1 37:-1 38:-1 39:-1 40:-1 
-0.53125 1:1 2:-1 3:0.482289 4:0.363395 5:-1 6:-1 7:-1 8:-0.75 9:1 10:-0.5 11:-1 12:-1 13:-1 15:1 16:-0.25 17:-0.75 18:1 19:-0.5 20:-1 21:-1 22:-1 23:-0.75 24:1 25:-0.5 26:-1 27:-1 28:-1 29:-1 30:-1 31:-1 32:-1 33:-1 34:-1 35:-1 36:-1 37:-1 38:-1 39:-1 40:-1 
-0.53125 1:1 2:-1 3:0.482289 4:0.363395 5:-1 6:-1 7:-1 8:-1 9:-1 10:-1 11:-0.75 12:1 13:-0.5 14:-1 15:-1 16:-1 17:-0.75 18:1 19:-0.5 20:-1 21:-1 22:-1 23:-0.75 24:1 25:-0.5 26:-1 27:-1 28:-1 30:1 31:-0.25 32:-1 33:-1 34:-1 35:-1 36:-1 37:-1 38:-1 39:-1 40:-1 
-0.53125 1:1 2:-1 3:0.482289 4:0.363395 5:-0.75 6:1 7:-0.5 9:1 10:-0.25 11:-1 12:-1 13:-1 14:-1 15:-1 16:-1 17:-1 18:-1 19:-1 20:-1 21:-1 22:-1 23:-1 24:-1 25:-1 26:-1 27:-1 28:-1 29:-0.75 30:1 31:-0.5 32:-1 33:-1 34:-1 35:-0.75 36:1 37:-0.5 38:-1 39:-1 40:-1 
-0.53125 1:1 2:-1 3:0.482289 4:0.363395 6:1 7:-0.25 8:-1 9:-1 10:-1 11:-1 12:-1 13:-1 14:-0.75 15:1 16:-0.5 17:-1 18:-1 19:-1 20:-1 21:-1 22:-1 23:-0.75 24:1 25:-0.5 26:-1 27:-1 28:-1 29:-1 30:-1 31:-1 32:-0.75 33:1 34:-0.5 35:-1 36:-1 37:-1 38:-1 39:-1 40:-1 
-0.53125 1:1 2:-1 3:0.482289 4:0.363395 6:1 7:-0.25 8:-1 9:-1 10:-1 11:-0.75 12:1 13:-0.5 14:-1 15:-1 16:-1 17:-1 18:-1 19:-1 20:-1 21:-1 22:-1 23:-1 24:-1 25:-1 26:-1 27:-1 28:-1 29:-1 30:-1 31:-1 32:-0.75 33:1 34:-0.5 35:-0.75 36:1 37:-0.5 38:-1 39:-1 40:-1 
-0.53125 1:1 2:-1 3:0.482289 4:0.363395 6:1 7:-0.25 8:-0.75 9:1 10:-0.5 11:-1 12:-1 13:-1 14:-0.75 15:1 16:-0.5 17:-1 18:-1 19:-1 20:-0.75 21:1 22:-0.5 23:-1 24:-1 25:-1 26:-1 27:-1 28:-1 29:-1 30:-1 31:-1 32:-1 33:-1 34:-1 35:-1 36:-1 37:-1 38:-1 39:-1 40:-1 
-0.53125 1:1 2:-1 3:0.482289 4:0.363395 5:-0.75 6:1 7:-0.5 8:-1 9:-1 10:-1 11:-1 12:-1 13:-1 15:1 16:-0.25 17:-1 18:-1 19:-1 20:-0.75 21:1 22:-0.5 23:-1 24:-1 25:-1 26:-0.75 27:1 28:-0.5 29:-1 30:-1 31:-1 32:-1 33:-1 34:-1 35:-1 36:-1 37:-1 38:-1 39:-1 40:-1 
-0.53125 1:1 2:-1 3:0.482289 4:0.363395 5:-1 6:-1 7:-1 8:-1 9:-1 10:-1 11:-1 12:-1 13:-1 14:-1 15:-1 16:-1 17:-1 18:-1 19:-1 20:-0.75 21:1 22:-0.5 24:1 25:-0.25 26:-1 27:-1 28:-1 29:-1 30:-1 31:-1 32:-0.75 33:1 34:-0.5 35:-1 36:-1 37:-1 38:-0.75 39:1 40:-0.5 
-0.53125 1:1 2:-1 3:0.482289 4:0.363395 6:1 7:-0.25 8:-1 9:-1 10:-1 11:-0.75 12:1 13:-0.5 14:-0.75 15:1 16:-0.5 17:-1 18:-1 19:-1 20:-1 21:-1 22:-1 23:-1 24:-1 25:-1 26:-1 27:-1 28:-1 29:-1 30:-1 31:-1 32:-0.75 33:1 34:-0.5 35:-1 36:-1 37:-1 38:-1 39:-1 40:-1 
-0.53125 1:1 2:-1 3:0.482289 4:0.363395 5:-1 6:-1 7:-1 8:-1 9:-1 10:-1 11:-1 12:-1 13:-1 14:-1 15:-1 16:-1 17:-1 18:-1 19:-1 20:-1 21:-1 22:-1 23:-0.75 24:1 25:-0.5 26:-0.75 27:1 28:-0.5 29:-0.75 30:1 31:-0.5 33:1 34:-0.25 35:-1 36:-1 37:-1 38:-1 39:-1 40:-1 
-0.53125 1:1 2:-1 3:0.482289 4:0.363395 5:-1 6:-1 7:-1 8:-0.75 9:1 10:-0.5 11:-1 12:-1 13:-1 14:-1 15:-1 16:-1 17:-1 18:-1 19:-1 20:-0.75 21:1 22:-0.5 23:-0.75 24:1 25:-0.5 26:-1 27:-1 28:-1 30:1 31:-0.25 32:-1 33:-1 34:-1 35:-1 36:-1 37:-1 38:-1 39:-1 40:-1 
-0.53125 1:1 2:-1 3:0.482289 4:0.363395 5:-0.75 6:1 7:-0.5 8:-0.75 9:1 10:-0.5 11:-1 12:-1 13:-1 14:-1 15:-1 16:-1 17:-0.75 18:1 19:-0.5 20:-1 21:-1 22:-1 24:1 25:-0.25 26:-1 27:-1 28:-1 29:-1 30:-1 31:-1 32:-1 33:-1 34:-1 35:-1 36:-1 37:-1 38:-1 39:-1 40:-1 
-0.53125 1:1 2:-1 3:0.482289 4:0.363395 5:-0.75 6:1 7:-0.5 9:1 10:-0.25 11:-0.75 12:1 13:-0.5 14:-0.75 15:1 16:-0.5 17:-1 18:-1 19:-1 20:-1 21:-1 22:-1 23:-1 24:-1 25:-1 26:-1 27:-1 28:-1 29:-1 30:-1 31:-1 32:-1 33:-1 34:-1 35:-1 36:-1 37:-1 38:-1 39:-1 40:-1 
-0.53125 1:1 2:-1 3:0.482289 4:0.363395 5:-0.75 6:1 7:-0.5 8:-1 9:-1 10:-1 11:-0.75 12:1 13:-0.5 14:-1 15:-1 16:-1 17:-0.75 18:1 19:-0.5 20:-1 21:-1 22:-1 23:-1 24:-1 25:-1 26:-1 27:-1 28:-1 29:-1 30:-1 31:-1 33:1 34:-0.25 35:-1 36:-1 37:-1 38:-1 39:-1 40:-1 
-0.53125 1:1 2:-1 3:0.482289 4:0.363395 5:-1 6:-1 7:-1 8:-1 9:-1 10:-1 11:-1 12:-1 13:-1 14:-1 15:-1 16:-1 17:-0.75 18:1 19:-0.5 20:-0.75 21:1 22:-0.5 24:1 25:-0.25 26:-1 27:-1 28:-1 29:-1 30:-1 31:-1 32:-1 33:-1 34:-1 35:-0.75 36:1 37:-0.5 38:-1 39:-1 40:-1 
-0.53125 1:1 2:-1 3:0.482289 4:0.363395 5:-1 6:-1 7:-1 8:-1 9:-1 10:-1 11:-0.75 12:1 13:-0.5 14:-1 15:-1 16:-1 17:-0.75 18:1 19:-0.5 21:1 22:-0.25 23:-0.75 24:1 25:-0.5 26:-1 27:-1 28:-1 29:-1 30:-1 31:-1 32:-1 33:-1 34:-1 35:-1 36:-1 37:-1 38:-1 39:-1 40:-1 
-0.53125 1:1 2:-1 3:0.482289 4:0.363395 5:-0.75 6:1 7:-0.5 8:-1 9:-1 10:-1 11:-1 12:-1 13:-1 14:-0.75 15:1 16:-0.5 17:-1 18:-1 19:-1 20:-0.75 21:1 22:-0.5 23:-1 24:-1 25:-1 27:1 28:-0.25 29:-1 30:-1 31:-1 32:-1 33:-1 34:-1 35:-1 36:-1 37:-1 38:-1 39:-1 40:-1 
-0.53125 1:1 2:-1 3:0.482289 4:0.363395 5:-1 6:-1 7:-1 8:-1 9:-1 10:-1 11:-1 12:-1 13:-1 14:-0.75 15:1 16:-0.5 17:-1 18:-1 19:-1 20:-0.75 21:1 22:-0.5 23:-1 24:-1 25:-1 26:-1 27:-1 28:-1 29:-0.75 30:1 31:-0.5 32:-1 33:-1 34:-1 36:1 37:-0.25 38:-1 39:-1 40:-1 
-0.53125 1:1 2:-1 3:0.482289 4:0.363395 5:-1 6:-1 7:-1 8:-1 9:-1 10:-1 12:1 13:-0.25 14:-0.75 15:1 16:-0.5 17:-1 18:-1 19:-1 20:-1 21:-1 22:-1 23:-0.75 24:1 25:-0.5 26:-1 27:-1 28:-1 29:-1 30:-1 31:-1 32:-1 33:-1 34:-1 35:-1 36:-1 37:-1 38:-0.75 39:1 40:-0.5 
-0.53125 1:1 2:-1 3:0.482289 4:0.363395 5:-1 6:-1 7:-1 8:-1 9:-1 10:-1 11:-1 12:-1 13:-1 14:-1 15:-1 16:-1 17:-0.75 18:1 19:-0.5 20:-0.75 21:1 22:-0.5 23:-1 24:-1 25:-1 27:1 28:-0.25 29:-1 30:-1 31:-1 32:-0.75 33:1 34:-0.5 35:-1 36:-1 37:-1 38:-1 39:-1 40:-1 
-0.53125 1:1 2:-1 3:0.482289 4:0.363395 5:-1 6:-1 7:-1 8:-0.75 9:1 10:-0.5 11:-0.75 12:1 13:-0.5 14:-1 15:-1 16:-1 17:-1 18:-1 19:-1 20:-0.75 21:1 22:-0.5 23:-1 24:-1 25:-1 26:-1 27:-1 28:-1 30:1 31:-0.25 32:-1 33:-1 34:-1 35:-1 36:-1 37:-1 38:-1 39:-1 40:-1 
-0.53125 1:1 2:-1 3:0.482289 4:0.363395 5:-1 6:-1 7:-1 8:-1 9:-1 10:-1 11:-1 12:-1 13:-1 14:-1 15:-1 16:-1 17:-0.75 18:1 19:-0.5 21:1 22:-0.25 23:-1 24:-1 25:-1 26:-0.75 27:1 28:-0.5 29:-1 30:-1 31:-1 32:-1 33:-1 34:-1 35:-0.75 36:1 37:-0.5 38:-1 39:-1 40:-1 
-0.53125 1:1 2:-1 3:0.482289 4:0.363395 5:-1 6:-1 7:-1 8:-1 9:-1 10:-1 11:-1 12:-1 13:-1 14:-0.75 15:1 16:-0.5 17:-1 18:-1 19:-1 20:-1 21:-1 22:-1 23:-1 24:-1 25:-1 27:1 28:-0.25 29:-0.75 30:1 31:-0.5 32:-1 33:-1 34:-1 35:-1 36:-1 37:-1 38:-0.75 39:1 40:-0.5 
-0.53125 1:1 2:-1 3:0.482289 4:0.363395 5:-1 6:-1 7:-1 9:1 10:-0.25 11:-1 12:-1 13:-1 14:-1 15:-1 16:-1 17:-1 18:-1 19:-1 20:-0.75 21:1 22:-0.5 23:-0.75 24:1 25:-0.5 26:-1 27:-1 28:-1 29:-1 30:-1 31:-1 32:-1 33:-1 34:-1 35:-0.75 36:1 37:-0.5 38:-1 39:-1 40:-1 
-0.53125 1:1 2:-1 3:0.482289 4:0.363395 5:-0.75 6:1 7:-0.5 8:-1 9:-1 10:-1 11:-0.75 12:1 13:-0.5 14:-1 15:-1 16:-1 17:-1 18:-1 19:-1 20:-1 21:-1 22:-1 23:-0.75 24:1 25:-0.5 27:1 28:-0.25 29:-1 30:-1 31:-1 32:-1 33:-1 34:-1 35:-1 36:-1 37:-1 38:-1 39:-1 40:-1 
-0.53125 1:1 2:-1 3:0.482289 4:0.363395 5:-1 6:-1 7:-1 8:-0.75 9:1 10:-0.5 12:1 13:-0.25 14:-0.75 15:1 16:-0.5 17:-1 18:-1 19:-1 20:-1 21:-1 22:-1 23:-1 24:-1 25:-1 26:-0.75 27:1 28:-0.5 29:-1 30:-1 31:-1 32:-1 33:-1 34:-1 35:-1 36:-1 37:-1 38:-1 39:-1 40:-1 
-0.53125 1:1 2:-1 3:0.50545 4:0.452874 5:-1 6:-1 7:-1 8:-1 9:-1 10:-1 12:1 13:-0.25 14:-1 15:-1 16:-1 18:1 19:-0.25 21:1 22:-0.25 23:-1 24:-1 25:-1 26:-1 27:-1 28:-1 29:-1 30:-1 31:-1 32:-1 33:-1 34:-1 36:1 37:-0.25 38:-1 39:-1 40:-1 
-0.53125 1:1 2:-1 3:0.50545 4:0.452874 6:1 7:-0.25 9:1 10:-0.25 11:-1 12:-1 13:-1 14:-1 15:-1 16:-1 17:-1 18:-1 19:-1 21:1 22:-0.25 23:-1 24:-1 25:-1 26:-1 27:-1 28:-1 29:-1 30:-1 31:-1 33:1 34:-0.25 35:-1 36:-1 37:-1 38:-1 39:-1 40:-1 
-0.53125 1:1 2:-1 3:0.50545 4:0.452874 5:-1 6:-1 7:-1 9:1 10:-0.25 12:1 13:-0.25 14:-1 15:-1 16:-1 18:1 19:-0.25 20:-1 21:-1 22:-1 23:-1 24:-1 25:-1 26:-1 27:-1 28:-1 30:1 31:-0.25 32:-1 33:-1 34:-1 35:-1 36:-1 37:-1 38:-1 39:-1 40:-1 
-0.53125 1:1 2:-1 3:0.50545 4:0.452874 5:-1 6:-1 7:-1 9:1 10:-0.25 12:1 13:-0.25 15:1 16:-0.25 17:-1 18:-1 19:-1 20:-1 21:-1 22:-1 23:-1 24:-1 25:-1 26:-1 27:-1 28:-1 29:-1 30:-1 31:-1 32:-1 33:-1 34:-1 36:1 37:-0.25 38:-1 39:-1 40:-1 
-0.53125 1:1 2:-1 3:0.50545 4:0.452874 5:-1 6:-1 7:-1 8:-1 9:-1 10:-1 12:1 13:-0.25 14:-1 15:-1 16:-1 17:-1 18:-1 19:-1 20:-1 21:-1 22:-1 24:1 25:-0.25 26:-1 27:-1 28:-1 29:-1 30:-1 31:-1 33:1 34:-0.25 35:-1 36:-1 37:-1 39:1 40:-0.25 
-0.53125 1:1 2:-1 3:0.50545 4:0.452874 5:-1 6:-1 7:-1 9:1 10:-0.25 11:-1 12:-1 13:-1 15:1 16:-0.25 18:1 19:-0.25 20:-1 21:-1 22:-1 23:-1 24:-1 25:-1 27:1 28:-0.25 29:-1 30:-1 31:-1 32:-1 33:-1 34:-1 35:-1 36:-1 37:-1 38:-1 39:-1 40:-1 
-0.53125 1:1 2:-1 3:0.50545 4:0.452874 6:1 7:-0.25 9:1 10:-0.25 11:-1 12:-1 13:-1 14:-1 15:-1 16:-1 17:-1 18:-1 19:-1 21:1 22:-0.25 24:1 25:-0.25 26:-1 27:-1 28:-1 29:-1 30:-1 31:-1 32:-1 33:-1 34:-1 35:-1 36:-1 37:-1 38:-1 39:-1 40:-1 
-0.53125 1:1 2:-1 3:0.50545 4:0.452874 5:-1 6:-1 7:-1 8:-1 9:-1 10:-1 12:1 13:-0.25 15:1 16:-0.25 17:-1 18:-1 19:-1 20:-1 21:-1 22:-1 24:1 25:-0.25 26:-1 27:-1 28:-1 30:1 31:-0.25 32:-1 33:-1 34:-1 35:-1 36:-1 37:-1 38:-1 39:-1 40:-1 
-0.53125 1:1 2:-1 3:0.50545 4:0.452874 5:-1 6:-1 7:-1 8:-1 9:-1 10:-1 12:1 13:-0.25 14:-1 15:-1 16:-1 18:1 19:-0.25 21:1 22:-0.25 23:-1 24:-1 25:-1 26:-1 27:-1 28:-1 29:-1 30:-1 31:-1 33:1 34:-0.25 35:-1 36:-1 37:-1 38:-1 39:-1 40:-1 
-0.53125 1:1 2:-1 3:0.50545 4:0.452874 5:-1 6:-1 7:-1 8:-1 9:-1 10:-1 12:1 13:-0.25 14:-1 15:-1 16:-1 18:1 19:-0.25 21:1 22:-0.25 24:1 25:-0.25 26:-1 27:-1 28:-1 29:-1 30:-1 31:-1 32:-1 33:-1 34:-1 35:-1 36:-1 37:-1 38:-1 39:-1 40:-1 
-0.53125 1:1 2:-1 3:0.50545 4:0.452874 5:-1 6:-1 7:-1 8:-1 9:-1 10:-1 11:-1 12:-1 13:-1 14:-1 15:-1 16:-1 18:1 19:-0.25 21:1 22:-0.25 24:1 25:-0.25 26:-1 27:-1 28:-1 29:-1 30:-1 31:-1 33:1 34:-0.25 35:-1 36:-1 37:-1 38:-1 39:-1 40:-1 
-0.53125 1:1 2:-1 3:0.50545 4:0.452874 6:1 7:-0.25 8:-1 9:-1 10:-1 11:-1 12:-1 13:-1 15:1 16:-0.25 17:-1 18:-1 19:-1 20:-1 21:-1 22:-1 23:-1 24:-1 25:-1 26:-1 27:-1 28:-1 29:-1 30:-1 31:-1 32:-1 33:-1 34:-1 36:1 37:-0.25 39:1 40:-0.25 
-0.53125 1:1 2:-1 3:0.50545 4:0.452874 5:-1 6:-1 7:-1 9:1 10:-0.25 12:1 13:-0.25 14:-1 15:-1 16:-1 18:1 19:-0.25 20:-1 21:-1 22:-1 23:-1 24:-1 25:-1 26:-1 27:-1 28:-1 29:-1 30:-1 31:-1 33:1 34:-0.25 35:-1 36:-1 37:-1 38:-1 39:-1 40:-1 
-0.53125 1:1 2:-1 3:0.50545 4:0.452874 5:-1 6:-1 7:-1 9:1 10:-0.25 11:-1 12:-1 13:-1 14:-1 15:-1 16:-1 18:1 19:-0.25 20:-1 21:-1 22:-1 23:-1 24:-1 25:-1 26:-1 27:-1 28:-1 30:1 31:-0.25 32:-1 33:-1 34:-1 35:-1 36:-1 37:-1 39:1 40:-0.25 
-0.53125 1:1 2:-1 3:0.50545 4:0.452874 5:-1 6:-1 7:-1 8:-1 9:-1 10:-1 11:-1 12:-1 13:-1 14:-1 15:-1 16:-1 17:-1 18:-1 19:-1 21:1 22:-0.25 24:1 25:-0.25 26:-1 27:-1 28:-1 30:1 31:-0.25 33:1 34:-0.25 35:-1 36:-1 37:-1 38:-1 39:-1 40:-1 
-0.53125 1:1 2:-1 3:0.50545 4:0.452874 6:1 7:-0.25 8:-1 9:-1 10:-1 12:1 13:-0.25 15:1 16:-0.25 17:-1 18:-1 19:-1 20:-1 21:-1 22:-1 23:-1 24:-1 25:-1 26:-1 27:-1 28:-1 30:1 31:-0.25 32:-1 33:-1 34:-1 35:-1 36:-1 37:-1 38:-1 39:-1 40:-1 
-0.53125 1:1 2:-1 3:0.50545 4:0.452874 6:1 7:-0.25 8:-1 9:-1 10:-1 11:-1 12:-1 13:-1 14:-1 15:-1 16:-1 17:-1 18:-1 19:-1 20:-1 21:-1 22:-1 24:1 25:-0.25 27:1 28:-0.25 29:-1 30:-1 31:-1 32:-1 33:-1 34:-1 35:-1 36:-1 37:-1 39:1 40:-0.25 
-0.53125 1:1 2:-1 3:0.50545 4:0.452874 5:-1 6:-1 7:-1 8:-1 9:-1 10:-1 12:1 13:-0.25 14:-1 15:-1 16:-1 18:1 19:-0.25 20:-1 21:-1 22:-1 23:-1 24:-1 25:-1 27:1 28:-0.25 29:-1 30:-1 31:-1 32:-1 33:-1 34:-1 35:-1 36:-1 37:-1 39:1 40:-0.25 
-0.53125 1:1 2:-1 3:0.50545 4:0.452874 5:-1 6:-1 7:-1 9:1 10:-0.25 11:-1 12:-1 13:-1 14:-1 15:-1 16:-1 17:-1 18:-1 19:-1 21:1 22:-0.25 24:1 25:-0.25 26:-1 27:-1 28:-1 30:1 31:-0.25 32:-1 33:-1 34:-1 35:-1 36:-1 37:-1 38:-1 39:-1 40:-1 
-0.53125 1:1 2:-1 3:0.50545 4:0.452874 6:1 7:-0.25 8:-1 9:-1 10:-1 11:-1 12:-1 13:-1 15:1 16:-0.25 17:-1 18:-1 19:-1 21:1 22:-0.25 23:-1 24:-1 25:-1 26:-1 27:-1 28:-1 29:-1 30:-1 31:-1 32:-1 33:-1 34:-1 36:1 37:-0.25 38:-1 39:-1 40:-1 
-0.53125 1:1 2:-1 3:0.50545 4:0.452874 6:1 7:-0.25 8:-1 9:-1 10:-1 12:1 13:-0.25 14:-1 15:-1 16:-1 18:1 19:-0.25 21:1 22:-0.25 23:-1 24:-1 25:-1 26:-1 27:-1 28:-1 29:-1 30:-1 31:-1 32:-1 33:-1 34:-1 35:-1 36:-1 37:-1 38:-1 39:-1 40:-1 
-0.53125 1:1 2:-1 3:0.50545 4:0.452874 5:-1 6:-1 7:-1 8:-1 9:-1 10:-1 11:-1 12:-1 13:-1 14:-1 15:-1 16:-1 18:1 19:-0.25 20:-1 21:-1 22:-1 24:1 25:-0.25 26:-1 27:-1 28:-1 29:-1 30:-1 31:-1 33:1 34:-0.25 36:1 37:-0.25 38:-1 39:-1 40:-1 
-0.53125 1:1 2:-1 3:0.50545 4:0.452874 5:-1 6:-1 7:-1 8:-1 9:-1 10:-1 11:-1 12:-1 13:-1 15:1 16:-0.25 17:-1 18:-1 19:-1 21:1 22:-0.25 24:1 25:-0.25 26:-1 27:-1 28:-1 29:-1 30:-1 31:-1 32:-1 33:-1 34:-1 35:-1 36:-1 37:-1 39:1 40:-0.25 
-0.53125 1:1 2:-1 3:0.50545 4:0.452874 5:-1 6:-1 7:-1 9:1 10:-0.25 11:-1 12:-1 13:-1 14:-1 15:-1 16:-1 17:-1 18:-1 19:-1 21:1 22:-0.25 23:-1 24:-1 25:-1 26:-1 27:-1 28:-1 29:-1 30:-1 31:-1 32:-1 33:-1 34:-1 36:1 37:-0.25 39:1 40:-0.25 
-0.53125 1:1 2:-1 3:0.50545 4:0.452874 5:-1 6:-1 7:-1 8:-1 9:-1 10:-1 11:-1 12:-1 13:-1 14:-1 15:-1 16:-1 18:1 19:-0.25 21:1 22:-0.25 23:-1 24:-1 25:-1 26:-1 27:-1 28:-1 29:-1 30:-1 31:-1 33:1 34:-0.25 35:-1 36:-1 37:-1 39:1 40:-0.25 
-0.53125 1:1 2:-1 3:0.50545 4:0.452874 5:-1 6:-1 7:-1 8:-1 9:-1 10:-1 11:-1 12:-1 13:-1 15:1 16:-0.25 17:-1 18:-1 19:-1 20:-1 21:-1 22:-1 24:1 25:-0.25 27:1 28:-0.25 29:-1 30:-1 31:-1 32:-1 33:-1 34:-1 35:-1 36:-1 37:-1 39:1 40:-0.25 
-0.53125 1:1 2:-1 3:0.50545 4:0.452874 6:1 7:-0.25 8:-1 9:-1 10:-1 11:-1 12:-1 13:-1 14:-1 15:-1 16:-1 18:1 19:-0.25 20:-1 21:-1 22:-1 23:-1 24:-1 25:-1 27:1 28:-0.25 29:-1 30:-1 31:-1 33:1 34:-0.25 35:-1 36:-1 37:-1 38:-1 39:-1 40:-1 
-0.53125 1:1 2:-1 3:0.50545 4:0.452874 5:-1 6:-1 7:-1 8:-1 9:-1 10:-1 12:1 13:-0.25 15:1 16:-0.25 17:-1 18:-1 19:-1 21:1 22:-0.25 23:-1 24:-1 25:-1 26:-1 27:-1 28:-1 29:-1 30:-1 31:-1 32:-1 33:-1 34:-1 35:-1 36:-1 37:-1 39:1 40:-0.25 
-0.53125 1:1 2:-1 3:0.50545 4:0.452874 5:-1 6:-1 7:-1 8:-1 9:-1 10:-1 11:-1 12:-1 13:-1 14:-1 15:-1 16:-1 17:-1 18:-1 19:-1 21:1 22:-0.25 24:1 25:-0.25 27:1 28:-0.25 30:1 31:-0.25 32:-1 33:-1 34:-1 35:-1 36:-1 37:-1 38:-1 39:-1 40:-1 
-0.53125 1:1 2:-1 3:0.50545 4:0.452874 5:-1 6:-1 7:-1 8:-1 9:-1 10:-1 11:-1 12:-1 13:-1 14:-1 15:-1 16:-1 18:1 19:-0.25 20:-1 21:-1 22:-1 23:-1 24:-1 25:-1 26:-1 27:-1 28:-1 29:-1 30:-1 31:-1 33:1 34:-0.25 36:1 37:-0.25 39:1 40:-0.25 
-0.1542749999999984 1:1 2:-0.5 3:0.501362 4:0.380018 5:-0.75 6:-0.5 7:-0.75 9:-0.5 11:-1 12:-1 13:-1 14:-1 15:-1 16:-1 17:-0.75 18:-0.5 20:-1 21:-1 22:-1 23:-1 24:-1 25:-1 27:1 28:-0.25 29:-0.75 30:-0.5 31:-0.75 32:-1 33:-1 34:-1 35:-0.75 36:-0.5 37:-0.25 38:-1 39:-1 40:-1 
-0.1542749999999984 1:1 2:-0.5 3:0.501362 4:0.380018 5:-1 6:-1 7:-1 8:-1 9:-1 10:-1 11:-0.75 12:-0.5 13:-0.75 14:-1 15:-1 16:-1 17:-1 18:-1 19:-1 20:-0.75 21:-0.5 22:-0.75 24:1 25:-0.25 26:-0.75 27:-0.5 28:-0.25 29:-1 30:-1 31:-1 32:-0.75 33:-0.5 35:-1 36:-1 37:-1 39:-0.5 
-0.1542749999999984 1:1 2:-0.5 3:0.501362 4:0.380018 6:-0.5 8:-0.75 9:-0.5 10:-0.75 11:-0.75 12:-0.5 14:-1 15:-1 16:-1 17:-1 18:-1 19:-1 20:-1 21:-1 22:-1 23:-0.75 24:-0.5 25:-0.25 26:-1 27:-1 28:-1 29:-1 30:-1 31:-1 32:-0.75 33:-0.5 34:-0.75 35:-1 36:-1 37:-1 39:1 40:-0.25 
-0.1542749999999984 1:1 2:-0.5 3:0.501362 4:0.380018 6:1 7:-0.25 8:-0.75 9:-0.5 10:-0.75 11:-1 12:-1 13:-1 14:-1 15:-1 16:-1 18:-0.5 20:-0.75 21:-0.5 23:-1 24:-1 25:-1 26:-0.75 27:-0.5 28:-0.25 29:-1 30:-1 31:-1 32:-1 33:-1 34:-1 35:-1 36:-1 37:-1 38:-0.75 39:-0.5 40:-0.75 
-0.1542749999999984 1:1 2:-0.5 3:0.501362 4:0.380018 5:-1 6:-1 7:-1 9:-0.5 11:-1 12:-1 13:-1 14:-1 15:-1 16:-1 17:-0.75 18:-0.5 19:-0.75 20:-1 21:-1 22:-1 23:-0.75 24:-0.5 27:1 28:-0.25 29:-1 30:-1 31:-1 32:-0.75 33:-0.5 34:-0.75 35:-1 36:-1 37:-1 38:-0.75 39:-0.5 40:-0.25 
-0.1542749999999984 1:1 2:-0.5 3:0.501362 4:0.380018 5:-0.75 6:-0.5 7:-0.75 8:-1 9:-1 10:-1 11:-1 12:-1 13:-1 15:1 16:-0.25 17:-1 18:-1 19:-1 20:-1 21:-1 22:-1 23:-0.75 24:-0.5 25:-0.75 26:-0.75 27:-0.5 30:-0.5 32:-0.75 33:-0.5 34:-0.25 35:-1 36:-1 37:-1 38:-1 39:-1 40:-1 
-0.1542749999999984 1:1 2:-0.5 3:0.501362 4:0.380018 5:-0.75 6:-0.5 7:-0.25 9:1 10:-0.25 12:-0.5 14:-0.75 15:-0.5 16:-0.75 17:-0.75 18:-0.5 20:-1 21:-1 22:-1 23:-0.75 24:-0.5 25:-0.75 26:-1 27:-1 28:-1 29:-1 30:-1 31:-1 32:-1 33:-1 34:-1 35:-1 36:-1 37:-1 38:-1 39:-1 40:-1 
-0.1542749999999984 1:1 2:-0.5 3:0.501362 4:0.380018 6:-0.5 8:-1 9:-1 10:-1 11:-0.75 12:-0.5 13:-0.25 14:-1 15:-1 16:-1 17:-1 18:-1 19:-1 20:-1 21:-1 22:-1 23:-0.75 24:-0.5 25:-0.75 26:-0.75 27:-0.5 28:-0.75 29:-1 30:-1 31:-1 33:1 34:-0.25 35:-1 36:-1 37:-1 38:-0.75 39:-0.5 
-0.1542749999999984 1:1 2:-0.5 3:0.501362 4:0.380018 5:-1 6:-1 7:-1 8:-1 9:-1 10:-1 12:1 13:-0.25 14:-1 15:-1 16:-1 18:-0.5 20:-0.75 21:-0.5 22:-0.75 23:-0.75 24:-0.5 25:-0.25 26:-1 27:-1 28:-1 29:-1 30:-1 31:-1 32:-1 33:-1 34:-1 35:-0.75 36:-0.5 37:-0.75 38:-0.75 39:-0.5 
-0.1542749999999984 1:1 2:-0.5 3:0.501362 4:0.380018 5:-1 6:-1 7:-1 8:-1 9:-1 10:-1 12:1 13:-0.25 14:-1 15:-1 16:-1 17:-0.75 18:-0.5 19:-0.75 20:-0.75 21:-0.5 22:-0.75 23:-0.75 24:-0.5 26:-0.75 27:-0.5 28:-0.25 30:-0.5 32:-1 33:-1 34:-1 35:-1 36:-1 37:-1 38:-1 39:-1 40:-1 
-0.1542749999999984 1:1 2:-0.5 3:0.501362 4:0.380018 5:-0.75 6:-0.5 7:-0.75 8:-1 9:-1 10:-1 11:-1 12:-1 13:-1 15:-0.5 17:-1 18:-1 19:-1 20:-0.75 21:-0.5 22:-0.75 23:-1 24:-1 25:-1 26:-0.75 27:-0.5 28:-0.25 29:-1 30:-1 31:-1 32:-1 33:-1 34:-1 36:1 37:-0.25 38:-0.75 39:-0.5 
-0.1542749999999984 1:1 2:-0.5 3:0.501362 4:0.380018 5:-0.75 6:-0.5 7:-0.25 8:-1 9:-1 10:-1 11:-1 12:-1 13:-1 15:1 16:-0.25 17:-1 18:-1 19:-1 20:-1 21:-1 22:-1 23:-0.75 24:-0.5 26:-0.75 27:-0.5 28:-0.75 30:-0.5 32:-1 33:-1 34:-1 35:-0.75 36:-0.5 37:-0.75 38:-1 39:-1 40:-1 
-0.1542749999999984 1:1 2:-0.5 3:0.501362 4:0.380018 5:-1 6:-1 7:-1 8:-0.75 9:-0.5 11:-0.75 12:-0.5 13:-0.25 15:-0.5 17:-1 18:-1 19:-1 20:-1 21:-1 22:-1 23:-0.75 24:-0.5 25:-0.75 26:-1 27:-1 28:-1 30:1 31:-0.25 32:-1 33:-1 34:-1 35:-0.75 36:-0.5 37:-0.75 38:-1 39:-1 40:-1 
-0.1542749999999984 1:1 2:-0.5 3:0.501362 4:0.380018 5:-1 6:-1 7:-1 8:-1 9:-1 10:-1 11:-0.75 12:-0.5 15:1 16:-0.25 17:-0.75 18:-0.5 19:-0.25 20:-0.75 21:-0.5 22:-0.75 23:-1 24:-1 25:-1 26:-1 27:-1 28:-1 29:-0.75 30:-0.5 31:-0.75 32:-1 33:-1 34:-1 35:-1 36:-1 37:-1 39:-0.5 
-0.1542749999999984 1:1 2:-0.5 3:0.501362 4:0.380018 6:1 7:-0.25 8:-1 9:-1 10:-1 11:-0.75 12:-0.5 13:-0.75 14:-1 15:-1 16:-1 17:-1 18:-1 19:-1 20:-0.75 21:-0.5 23:-1 24:-1 25:-1 26:-1 27:-1 28:-1 30:-0.5 32:-0.75 33:-0.5 34:-0.75 35:-1 36:-1 37:-1 38:-0.75 39:-0.5 40:-0.25 
-0.1542749999999984 1:1 2:-0.5 3:0.501362 4:0.380018 5:-1 6:-1 7:-1 8:-1 9:-1 10:-1 11:-1 12:-1 13:-1 15:-0.5 17:-0.75 18:-0.5 19:-0.75 20:-1 21:-1 22:-1 23:-0.75 24:-0.5 27:1 28:-0.25 29:-0.75 30:-0.5 31:-0.75 32:-1 33:-1 34:-1 35:-1 36:-1 37:-1 38:-0.75 39:-0.5 40:-0.25 
-0.1542749999999984 1:1 2:-0.5 3:0.501362 4:0.380018 5:-1 6:-1 7:-1 8:-0.75 9:-0.5 10:-0.75 11:-1 12:-1 13:-1 15:-0.5 17:-1 18:-1 19:-1 20:-1 21:-1 22:-1 23:-0.75 24:-0.5 25:-0.75 27:1 28:-0.25 29:-0.75 30:-0.5 31:-0.25 32:-0.75 33:-0.5 35:-1 36:-1 37:-1 38:-1 39:-1 40:-1 
-0.1542749999999984 1:1 2:-0.5 3:0.501362 4:0.380018 5:-1 6:-1 7:-1 8:-1 9:-1 10:-1 11:-1 12:-1 13:-1 15:-0.5 17:-0.75 18:-0.5 21:1 22:-0.25 23:-0.75 24:-0.5 25:-0.75 26:-1 27:-1 28:-1 29:-1 30:-1 31:-1 32:-0.75 33:-0.5 34:-0.75 35:-1 36:-1 37:-1 38:-0.75 39:-0.5 40:-0.25 
-0.1542749999999984 1:1 2:-0.5 3:0.501362 4:0.380018 5:-1 6:-1 7:-1 9:-0.5 11:-1 12:-1 13:-1 14:-1 15:-1 16:-1 18:1 19:-0.25 20:-1 21:-1 22:-1 23:-1 24:-1 25:-1 26:-1 27:-1 28:-1 29:-0.75 30:-0.5 31:-0.75 32:-0.75 33:-0.5 34:-0.75 35:-0.75 36:-0.5 38:-0.75 39:-0.5 40:-0.25 
-0.1542749999999984 1:1 2:-0.5 3:0.501362 4:0.380018 6:-0.5 8:-1 9:-1 10:-1 11:-1 12:-1 13:-1 14:-0.75 15:-0.5 16:-0.75 17:-0.75 18:-0.5 19:-0.25 20:-1 21:-1 22:-1 23:-0.75 24:-0.5 25:-0.75 26:-1 27:-1 28:-1 30:1 31:-0.25 32:-1 33:-1 34:-1 35:-1 36:-1 37:-1 38:-0.75 39:-0.5 
-0.1542749999999984 1:1 2:-0.5 3:0.501362 4:0.380018 5:-0.75 6:-0.5 7:-0.75 9:1 10:-0.25 11:-1 12:-1 13:-1 15:-0.5 17:-1 18:-1 19:-1 20:-1 21:-1 22:-1 23:-1 24:-1 25:-1 26:-0.75 27:-0.5 28:-0.75 29:-1 30:-1 31:-1 32:-1 33:-1 34:-1 35:-0.75 36:-0.5 37:-0.25 38:-0.75 39:-0.5 
-0.1542749999999984 1:1 2:-0.5 3:0.501362 4:0.380018 5:-1 6:-1 7:-1 8:-0.75 9:-0.5 10:-0.75 11:-1 12:-1 13:-1 14:-1 15:-1 16:-1 17:-1 18:-1 19:-1 20:-0.75 21:-0.5 24:-0.5 26:-1 27:-1 28:-1 29:-0.75 30:-0.5 31:-0.75 32:-0.75 33:-0.5 34:-0.25 35:-1 36:-1 37:-1 39:1 40:-0.25 
-0.1542749999999984 1:1 2:-0.5 3:0.501362 4:0.380018 6:1 7:-0.25 8:-1 9:-1 10:-1 12:-0.5 14:-0.75 15:-0.5 16:-0.25 17:-0.75 18:-0.5 19:-0.75 20:-1 21:-1 22:-1 23:-1 24:-1 25:-1 26:-1 27:-1 28:-1 29:-0.75 30:-0.5 31:-0.75 32:-0.75 33:-0.5 35:-1 36:-1 37:-1 38:-1 39:-1 40:-1 
-0.1542749999999984 1:1 2:-0.5 3:0.501362 4:0.380018 5:-0.75 6:-0.5 7:-0.25 8:-1 9:-1 10:-1 11:-1 12:-1 13:-1 14:-1 15:-1 16:-1 17:-0.75 18:-0.5 19:-0.75 20:-0.75 21:-0.5 23:-0.75 24:-0.5 25:-0.75 27:1 28:-0.25 29:-1 30:-1 31:-1 33:-0.5 35:-1 36:-1 37:-1 38:-1 39:-1 40:-1 
-0.1542749999999984 1:1 2:-0.5 3:0.501362 4:0.380018 5:-1 6:-1 7:-1 8:-1 9:-1 10:-1 11:-1 12:-1 13:-1 15:1 16:-0.25 17:-1 18:-1 19:-1 21:-0.5 23:-1 24:-1 25:-1 26:-0.75 27:-0.5 29:-1 30:-1 31:-1 32:-0.75 33:-0.5 34:-0.75 35:-0.75 36:-0.5 37:-0.75 38:-0.75 39:-0.5 40:-0.25 
-0.1542749999999984 1:1 2:-0.5 3:0.501362 4:0.380018 5:-1 6:-1 7:-1 9:-0.5 11:-0.75 12:-0.5 13:-0.75 14:-0.75 15:-0.5 16:-0.75 17:-1 18:-1 19:-1 20:-1 21:-1 22:-1 23:-0.75 24:-0.5 25:-0.25 26:-0.75 27:-0.5 29:-1 30:-1 31:-1 33:1 34:-0.25 35:-1 36:-1 37:-1 38:-1 39:-1 40:-1 
-0.1542749999999984 1:1 2:-0.5 3:0.501362 4:0.380018 5:-1 6:-1 7:-1 8:-1 9:-1 10:-1 11:-0.75 12:-0.5 13:-0.75 14:-1 15:-1 16:-1 17:-0.75 18:-0.5 19:-0.25 21:-0.5 23:-1 24:-1 25:-1 26:-1 27:-1 28:-1 29:-0.75 30:-0.5 32:-0.75 33:-0.5 34:-0.75 36:1 37:-0.25 38:-1 39:-1 40:-1 
-0.1542749999999984 1:1 2:-0.5 3:0.501362 4:0.380018 6:-0.5 8:-1 9:-1 10:-1 11:-1 12:-1 13:-1 14:-0.75 15:-0.5 16:-0.25 17:-1 18:-1 19:-1 20:-0.75 21:-0.5 22:-0.75 23:-1 24:-1 25:-1 26:-0.75 27:-0.5 29:-0.75 30:-0.5 31:-0.75 32:-1 33:-1 34:-1 36:1 37:-0.25 38:-1 39:-1 40:-1 
-0.1542749999999984 1:1 2:-0.5 3:0.501362 4:0.380018 5:-1 6:-1 7:-1 8:-0.75 9:-0.5 10:-0.75 11:-0.75 12:-0.5 13:-0.25 14:-1 15:-1 16:-1 17:-1 18:-1 19:-1 20:-1 21:-1 22:-1 23:-0.75 24:-0.5 25:-0.75 26:-1 27:-1 28:-1 30:1 31:-0.25 32:-1 33:-1 34:-1 36:-0.5 38:-0.75 39:-0.5 
-0.1542749999999984 1:1 2:-0.5 3:0.501362 4:0.380018 5:-0.75 6:-0.5 7:-0.75 8:-0.75 9:-0.5 10:-0.25 11:-0.75 12:-0.5 13:-0.75 14:-1 15:-1 16:-1 17:-1 18:-1 19:-1 21:1 22:-0.25 23:-1 24:-1 25:-1 27:-0.5 29:-1 30:-1 31:-1 32:-0.75 33:-0.5 35:-1 36:-1 37:-1 38:-1 39:-1 40:-1 
0.1061624999999964 1:1 2:-0.5 3:0.513624 4:0.432361 5:-0.75 6:1 7:-0.25 8:-1 9:-1 10:-1 11:-0.75 13:-0.25 14:-1 15:-1 16:-1 17:-1 18:-1 19:-1 20:-0.75 21:-0.5 23:-1 24:-1 25:-1 26:-0.75 27:-0.5 28:-0.75 29:-1 30:-1 31:-1 32:-0.75 33:-0.5 34:-0.75 35:-0.75 36:-0.5 38:-1 39:-1 40:-1 
0.1061624999999964 1:1 2:-0.5 3:0.513624 4:0.432361 5:-0.75 6:-0.5 7:-0.75 8:-0.75 10:-0.25 11:-1 12:-1 13:-1 14:-1 15:-1 16:-1 17:-0.75 18:1 19:-0.25 20:-1 21:-1 22:-1 23:-1 24:-1 25:-1 26:-0.75 27:-0.5 28:-0.75 29:-1 30:-1 31:-1 32:-0.75 33:-0.5 35:-0.75 36:-0.5 38:-1 39:-1 40:-1 
0.1061624999999964 1:1 2:-0.5 3:0.513624 4:0.432361 5:-1 6:-1 7:-1 8:-1 9:-1 10:-1 11:-0.75 12:1 13:-0.25 14:-0.75 15:-0.5 16:-0.75 17:-1 18:-1 19:-1 20:-0.75 21:-0.5 23:-0.75 25:-0.25 26:-1 27:-1 28:-1 29:-1 30:-1 31:-1 32:-0.75 33:-0.5 35:-0.75 36:-0.5 37:-0.75 38:-1 39:-1 40:-1 
0.1061624999999964 1:1 2:-0.5 3:0.513624 4:0.432361 5:-0.75 6:-0.5 7:-0.75 8:-0.75 9:-0.5 10:-0.75 11:-1 12:-1 13:-1 14:-0.75 16:-0.25 17:-0.75 18:-0.5 20:-1 21:-1 22:-1 23:-1 24:-1 25:-1 26:-0.75 27:1 28:-0.25 29:-1 30:-1 31:-1 32:-1 33:-1 34:-1 35:-1 36:-1 37:-1 38:-0.75 39:-0.5 
0.1061624999999964 1:1 2:-0.5 3:0.513624 4:0.432361 5:-0.75 6:1 7:-0.25 8:-0.75 9:-0.5 10:-0.75 11:-0.75 12:-0.5 14:-1 15:-1 16:-1 17:-1 18:-1 19:-1 20:-1 21:-1 22:-1 23:-1 24:-1 25:-1 26:-0.75 28:-0.25 29:-1 30:-1 31:-1 32:-1 33:-1 34:-1 35:-0.75 36:-0.5 38:-0.75 39:-0.5 40:-0.75 
0.1058374999999998 1:1 2:-0.5 3:0.513624 4:0.432361 5:-1 6:-1 7:-1 8:-1 9:-1 10:-1 11:-0.75 13:-0.25 14:-1 15:-1 16:-1 17:-0.75 18:-0.5 19:-0.75 20:-0.75 21:-0.5 23:-1 24:-1 25:-1 26:-1 27:-1 28:-1 29:-0.75 30:-0.5 32:-0.75 33:1 34:-0.25 35:-0.75 36:-0.5 37:-0.75 38:-1 39:-1 40:-1 
0.1055250000018368 1:1 2:-0.5 3:0.513624 4:0.432361 5:-1 6:-1 7:-1 8:-0.75 9:-0.5 11:-0.75 12:-0.5 14:-1 15:-1 16:-1 17:-1 18:-1 19:-1 20:-0.75 22:-0.25 23:-0.75 24:1 25:-0.25 26:-0.75 27:-0.5 28:-0.75 29:-0.75 30:-0.5 31:-0.75 32:-1 33:-1 34:-1 35:-1 36:-1 37:-1 38:-1 39:-1 40:-1 
0.1055250000000001 1:1 2:-0.5 3:0.513624 4:0.432361 5:-0.75 6:1 7:-0.25 8:-1 9:-1 10:-1 11:-0.75 12:-0.5 14:-0.75 15:-0.5 17:-1 18:-1 19:-1 20:-0.75 21:-0.5 22:-0.75 23:-0.75 25:-0.25 26:-0.75 27:-0.5 28:-0.75 29:-1 30:-1 31:-1 32:-1 33:-1 34:-1 35:-1 36:-1 37:-1 38:-1 39:-1 40:-1 
0.1055250000000001 1:1 2:-0.5 3:0.513624 4:0.432361 5:-1 6:-1 7:-1 8:-1 9:-1 10:-1 11:-0.75 12:-0.5 14:-0.75 15:-0.5 16:-0.75 17:-0.75 18:1 19:-0.25 20:-1 21:-1 22:-1 23:-0.75 24:-0.5 25:-0.75 26:-1 27:-1 28:-1 29:-1 30:-1 31:-1 32:-1 33:-1 34:-1 35:-0.75 36:-0.5 38:-0.75 40:-0.25 
0.1055250000000001 1:1 2:-0.5 3:0.513624 4:0.432361 5:-1 6:-1 7:-1 8:-0.75 9:-0.5 10:-0.75 11:-1 12:-1 13:-1 14:-0.75 15:-0.5 17:-0.75 18:-0.5 19:-0.75 20:-1 21:-1 22:-1 23:-1 24:-1 25:-1 26:-0.75 27:1 28:-0.25 29:-0.75 30:-0.5 32:-0.75 34:-0.25 35:-1 36:-1 37:-1 38:-1 39:-1 40:-1 
0.1055250000000001 1:1 2:-0.5 3:0.513624 4:0.432361 5:-1 6:-1 7:-1 8:-0.75 9:-0.5 11:-0.75 12:-0.5 13:-0.75 14:-1 15:-1 16:-1 17:-1 18:-1 19:-1 20:-1 21:-1 22:-1 23:-0.75 25:-0.25 26:-0.75 27:-0.5 28:-0.75 29:-1 30:-1 31:-1 32:-0.75 33:1 34:-0.25 35:-1 36:-1 37:-1 38:-0.75 39:-0.5 
0.1055250000000001 1:1 2:-0.5 3:0.513624 4:0.432361 5:-0.75 6:-0.5 7:-0.75 8:-1 9:-1 10:-1 11:-1 12:-1 13:-1 14:-1 15:-1 16:-1 17:-1 18:-1 19:-1 20:-0.75 22:-0.25 23:-1 24:-1 25:-1 26:-0.75 27:-0.5 29:-1 30:-1 31:-1 32:-0.75 33:-0.5 34:-0.75 35:-0.75 36:1 37:-0.25 38:-0.75 39:-0.5 
0.1055250000000001 1:1 2:-0.5 3:0.513624 4:0.432361 5:-1 6:-1 7:-1 8:-0.75 9:-0.5 10:-0.75 11:-1 12:-1 13:-1 14:-1 15:-1 16:-1 17:-0.75 18:-0.5 19:-0.75 20:-1 21:-1 22:-1 23:-0.75 24:1 25:-0.25 26:-1 27:-1 28:-1 29:-0.75 30:-0.5 32:-0.75 33:-0.5 35:-1 36:-1 37:-1 38:-0.75 40:-0.25 
0.1055250000000001 1:1 2:-0.5 3:0.513624 4:0.432361 5:-1 6:-1 7:-1 8:-0.75 9:1 10:-0.25 11:-1 12:-1 13:-1 14:-1 15:-1 16:-1 17:-0.75 18:-0.5 19:-0.75 20:-0.75 21:-0.5 23:-1 24:-1 25:-1 26:-1 27:-1 28:-1 29:-0.75 31:-0.25 32:-0.75 33:-0.5 35:-1 36:-1 37:-1 38:-0.75 39:-0.5 40:-0.75 
0.1055250000000001 1:1 2:-0.5 3:0.513624 4:0.432361 5:-0.75 6:-0.5 7:-0.75 8:-1 9:-1 10:-1 11:-1 12:-1 13:-1 14:-1 15:-1 16:-1 17:-0.75 19:-0.25 20:-1 21:-1 22:-1 23:-1 24:-1 25:-1 26:-0.75 27:-0.5 28:-0.75 29:-1 30:-1 31:-1 32:-0.75 33:-0.5 35:-0.75 36:1 37:-0.25 38:-0.75 39:-0.5 
0.1055250000000001 1:1 2:-0.5 3:0.513624 4:0.432361 5:-0.75 6:-0.5 7:-0.75 8:-1 9:-1 10:-1 11:-0.75 12:-0.5 13:-0.75 14:-0.75 15:-0.5 17:-0.75 19:-0.25 20:-0.75 21:-0.5 23:-1 24:-1 25:-1 26:-0.75 27:1 28:-0.25 29:-1 30:-1 31:-1 32:-1 33:-1 34:-1 35:-1 36:-1 37:-1 38:-1 39:-1 40:-1 
0.1055250000000001 1:1 2:-0.5 3:0.513624 4:0.432361 5:-1 6:-1 7:-1 8:-1 9:-1 10:-1 11:-0.75 12:-0.5 13:-0.75 14:-0.75 15:-0.5 16:-0.75 17:-0.75 18:-0.5 20:-0.75 21:1 22:-0.25 23:-1 24:-1 25:-1 26:-1 27:-1 28:-1 29:-1 30:-1 31:-1 32:-0.75 34:-0.25 35:-0.75 36:-0.5 38:-1 39:-1 40:-1 
0.1055250000000001 1:1 2:-0.5 3:0.513624 4:0.432361 5:-1 6:-1 7:-1 8:-1 9:-1 10:-1 11:-0.75 12:-0.5 14:-1 15:-1 16:-1 17:-1 18:-1 19:-1 20:-0.75 22:-0.25 23:-0.75 24:-0.5 26:-0.75 27:-0.5 28:-0.75 29:-1 30:-1 31:-1 32:-0.75 33:-0.5 34:-0.75 35:-1 36:-1 37:-1 38:-0.75 39:1 40:-0.25 
0.1055250000000001 1:1 2:-0.5 3:0.513624 4:0.432361 5:-1 6:-1 7:-1 8:-1 9:-1 10:-1 11:-0.75 12:-0.5 13:-0.75 14:-1 15:-1 16:-1 17:-0.75 18:-0.5 20:-0.75 21:1 22:-0.25 23:-1 24:-1 25:-1 26:-1 27:-1 28:-1 29:-0.75 31:-0.25 32:-0.75 33:-0.5 35:-0.75 36:-0.5 37:-0.75 38:-1 39:-1 40:-1 
0.1055250000000001 1:1 2:-0.5 3:0.513624 4:0.432361 5:-1 6:-1 7:-1 8:-0.75 10:-0.25 11:-1 12:-1 13:-1 14:-1 15:-1 16:-1 17:-0.75 18:-0.5 19:-0.75 20:-1 21:-1 22:-1 23:-0.75 24:-0.5 26:-1 27:-1 28:-1 29:-0.75 30:-0.5 31:-0.75 32:-1 33:-1 34:-1 35:-0.75 36:1 37:-0.25 38:-0.75 39:-0.5 
0.1055250000000001 1:1 2:-0.5 3:0.513624 4:0.432361 5:-0.75 6:-0.5 7:-0.75 8:-1 9:-1 10:-1 11:-0.75 12:-0.5 13:-0.75 14:-0.75 15:1 16:-0.25 17:-0.75 18:-0.5 20:-0.75 22:-0.25 23:-1 24:-1 25:-1 26:-1 27:-1 28:-1 29:-0.75 30:-0.5 32:-1 33:-1 34:-1 35:-1 36:-1 37:-1 38:-1 39:-1 40:-1 
0.1055250000000001 1:1 2:-0.5 3:0.513624 4:0.432361 5:-0.75 6:-0.5 7:-0.75 8:-0.75 9:-0.5 11:-1 12:-1 13:-1 14:-0.75 15:-0.5 16:-0.75 17:-0.75 18:-0.5 20:-1 21:-1 22:-1 23:-0.75 24:1 25:-0.25 26:-1 27:-1 28:-1 29:-1 30:-1 31:-1 32:-1 33:-1 34:-1 35:-0.75 37:-0.25 38:-1 39:-1 40:-1 
0.1055250000000001 1:1 2:-0.5 3:0.513624 4:0.432361 5:-0.75 6:1 7:-0.25 8:-1 9:-1 10:-1 11:-1 12:-1 13:-1 14:-0.75 15:-0.5 17:-1 18:-1 19:-1 20:-1 21:-1 22:-1 23:-0.75 24:-0.5 26:-1 27:-1 28:-1 29:-0.75 30:-0.5 31:-0.75 32:-0.75 33:-0.5 34:-0.75 35:-1 36:-1 37:-1 38:-0.75 40:-0.25 
0.1055250000000001 1:1 2:-0.5 3:0.513624 4:0.432361 5:-0.75 6:-0.5 7:-0.75 8:-0.75 10:-0.25 11:-1 12:-1 13:-1 14:-1 15:-1 16:-1 17:-0.75 18:-0.5 20:-1 21:-1 22:-1 23:-0.75 24:-0.5 25:-0.75 26:-1 27:-1 28:-1 29:-0.75 30:-0.5 32:-1 33:-1 34:-1 35:-1 36:-1 37:-1 38:-0.75 39:1 40:-0.25 
0.1055250000000001 1:1 2:-0.5 3:0.513624 4:0.432361 5:-1 6:-1 7:-1 8:-0.75 10:-0.25 11:-1 12:-1 13:-1 14:-0.75 15:1 16:-0.25 17:-1 18:-1 19:-1 20:-0.75 21:-0.5 23:-1 24:-1 25:-1 26:-1 27:-1 28:-1 29:-1 30:-1 31:-1 32:-0.75 33:-0.5 34:-0.75 35:-0.75 36:-0.5 37:-0.75 38:-0.75 39:-0.5 
0.1055250000000001 1:1 2:-0.5 3:0.513624 4:0.432361 5:-0.75 6:1 7:-0.25 8:-1 9:-1 10:-1 11:-0.75 12:-0.5 13:-0.75 14:-0.75 16:-0.25 17:-1 18:-1 19:-1 20:-0.75 21:-0.5 23:-1 24:-1 25:-1 26:-0.75 27:-0.5 29:-0.75 30:-0.5 31:-0.75 32:-1 33:-1 34:-1 35:-1 36:-1 37:-1 38:-1 39:-1 40:-1 
0.1055250000000001 1:1 2:-0.5 3:0.513624 4:0.432361 5:-0.75 6:-0.5 7:-0.75 8:-0.75 9:-0.5 11:-1 12:-1 13:-1 14:-1 15:-1 16:-1 17:-1 18:-1 19:-1 20:-0.75 21:-0.5 23:-1 24:-1 25:-1 26:-1 27:-1 28:-1 29:-1 30:-1 31:-1 32:-0.75 33:1 34:-0.25 35:-0.75 37:-0.25 38:-0.75 39:-0.5 40:-0.75 
0.1055250000000001 1:1 2:-0.5 3:0.513624 4:0.432361 5:-1 6:-1 7:-1 8:-0.75 9:1 10:-0.25 11:-1 12:-1 13:-1 14:-1 15:-1 16:-1 17:-0.75 18:-0.5 20:-1 21:-1 22:-1 23:-0.75 25:-0.25 26:-1 27:-1 28:-1 29:-0.75 30:-0.5 31:-0.75 32:-1 33:-1 34:-1 35:-0.75 36:-0.5 37:-0.75 38:-0.75 39:-0.5 
0.1055250000000001 1:1 2:-0.5 3:0.513624 4:0.432361 5:-0.75 6:1 7:-0.25 8:-0.75 9:-0.5 11:-1 12:-1 13:-1 14:-0.75 15:-0.5 16:-0.75 17:-0.75 18:-0.5 19:-0.75 20:-1 21:-1 22:-1 23:-1 24:-1 25:-1 26:-0.75 28:-0.25 29:-0.75 30:-0.5 32:-1 33:-1 34:-1 35:-1 36:-1 37:-1 38:-1 39:-1 40:-1 
0.1055250000000001 1:1 2:-0.5 3:0.513624 4:0.432361 5:-0.75 6:1 7:-0.25 8:-0.75 9:-0.5 10:-0.75 11:-0.75 12:-0.5 14:-1 15:-1 16:-1 17:-1 18:-1 19:-1 20:-1 21:-1 22:-1 23:-1 24:-1 25:-1 26:-1 27:-1 28:-1 29:-0.75 30:-0.5 32:-0.75 33:-0.5 34:-0.75 35:-0.75 37:-0.25 38:-1 39:-1 40:-1 
-0.53125 1:1 2:-0.5 3:0.493188 4:0.415738 5:-1 6:-1 7:-1 8:-0.75 9:-0.5 10:-0.75 11:-0.75 12:-0.5 13:-0.75 14:-0.75 15:-0.5 16:-0.75 17:-1 18:-1 19:-1 20:-0.75 21:-0.5 22:-0.75 23:-0.75 24:-0.5 25:-0.75 26:-1 27:-1 28:-1 29:-1 30:-1 31:-1 32:-0.75 33:-0.5 34:-0.75 35:-1 36:-1 37:-1 38:-1 39:-1 40:-1 
-0.53125 1:1 2:-0.5 3:0.493188 4:0.415738 5:-1 6:-1 7:-1 8:-0.75 9:-0.5 10:-0.75 11:-0.75 12:-0.5 13:-0.75 14:-0.75 15:-0.5 16:-0.75 17:-0.75 18:-0.5 19:-0.75 20:-1 21:-1 22:-1 23:-1 24:-1 25:-1 26:-0.75 27:-0.5 28:-0.75 29:-1 30:-1 31:-1 32:-0.75 33:-0.5 34:-0.75 35:-1 36:-1 37:-1 38:-1 39:-1 40:-1 
-0.53125 1:1 2:-0.5 3:0.493188 4:0.415738 5:-0.75 6:-0.5 7:-0.75 8:-1 9:-1 10:-1 11:-1 12:-1 13:-1 14:-1 15:-1 16:-1 17:-0.75 18:-0.5 19:-0.75 20:-1 21:-1 22:-1 23:-0.75 24:-0.5 25:-0.75 26:-0.75 27:-0.5 28:-0.75 29:-1 30:-1 31:-1 32:-0.75 33:-0.5 34:-0.75 35:-1 36:-1 37:-1 38:-0.75 39:-0.5 40:-0.75 
-0.53125 1:1 2:-0.5 3:0.493188 4:0.415738 5:-0.75 6:-0.5 7:-0.75 8:-1 9:-1 10:-1 11:-1 12:-1 13:-1 14:-0.75 15:-0.5 16:-0.75 17:-1 18:-1 19:-1 20:-0.75 21:-0.5 22:-0.75 23:-0.75 24:-0.5 25:-0.75 26:-1 27:-1 28:-1 29:-0.75 30:-0.5 31:-0.75 32:-1 33:-1 34:-1 35:-0.75 36:-0.5 37:-0.75 38:-1 39:-1 40:-1 
-0.53125 1:1 2:-0.5 3:0.493188 4:0.415738 5:-1 6:-1 7:-1 8:-1 9:-1 10:-1 11:-1 12:-1 13:-1 14:-1 15:-1 16:-1 17:-1 18:-1 19:-1 20:-0.75 21:-0.5 22:-0.75 23:-0.75 24:-0.5 25:-0.75 26:-0.75 27:-0.5 28:-0.75 29:-1 30:-1 31:-1 32:-0.75 33:-0.5 34:-0.75 35:-0.75 36:-0.5 37:-0.75 38:-0.75 39:-0.5 40:-0.75 
-0.53125 1:1 2:-0.5 3:0.493188 4:0.415738 5:-0.75 6:-0.5 7:-0.75 8:-1 9:-1 10:-1 11:-0.75 12:-0.5 13:-0.75 14:-0.75 15:-0.5 16:-0.75 17:-0.75 18:-0.5 19:-0.75 20:-1 21:-1 22:-1 23:-1 24:-1 25:-1 26:-0.75 27:-0.5 28:-0.75 29:-1 30:-1 31:-1 32:-1 33:-1 34:-1 35:-1 36:-1 37:-1 38:-0.75 39:-0.5 40:-0.75 
-0.53125 1:1 2:-0.5 3:0.493188 4:0.415738 5:-0.75 6:-0.5 7:-0.75 8:-1 9:-1 10:-1 11:-0.75 12:-0.5 13:-0.75 14:-1 15:-1 16:-1 17:-0.75 18:-0.5 19:-0.75 20:-1 21:-1 22:-1 23:-0.75 24:-0.5 25:-0.75 26:-1 27:-1 28:-1 29:-1 30:-1 31:-1 32:-0.75 33:-0.5 34:-0.75 35:-1 36:-1 37:-1 38:-0.75 39:-0.5 40:-0.75 
-0.53125 1:1 2:-0.5 3:0.493188 4:0.415738 5:-0.75 6:-0.5 7:-0.75 8:-1 9:-1 10:-1 11:-1 12:-1 13:-1 14:-1 15:-1 16:-1 17:-0.75 18:-0.5 19:-0.75 20:-0.75 21:-0.5 22:-0.75 23:-1 24:-1 25:-1 26:-1 27:-1 28:-1 29:-0.75 30:-0.5 31:-0.75 32:-0.75 33:-0.5 34:-0.75 35:-0.75 36:-0.5 37:-0.75 38:-1 39:-1 40:-1 
-0.53125 1:1 2:-0.5 3:0.493188 4:0.415738 5:-1 6:-1 7:-1 8:-1 9:-1 10:-1 11:-0.75 12:-0.5 13:-0.75 14:-0.75 15:-0.5 16:-0.75 17:-1 18:-1 19:-1 20:-0.75 21:-0.5 22:-0.75 23:-0.75 24:-0.5 25:-0.75 26:-1 27:-1 28:-1 29:-0.75 30:-0.5 31:-0.75 32:-1 33:-1 34:-1 35:-1 36:-1 37:-1 38:-0.75 39:-0.5 40:-0.75 
-0.53125 1:1 2:-0.5 3:0.493188 4:0.415738 5:-0.75 6:-0.5 7:-0.75 8:-0.75 9:-0.5 10:-0.75 11:-1 12:-1 13:-1 14:-1 15:-1 16:-1 17:-1 18:-1 19:-1 20:-0.75 21:-0.5 22:-0.75 23:-0.75 24:-0.5 25:-0.75 26:-0.75 27:-0.5 28:-0.75 29:-0.75 30:-0.5 31:-0.75 32:-1 33:-1 34:-1 35:-1 36:-1 37:-1 38:-1 39:-1 40:-1 
-0.1227124999999987 1:1 2:-0.5 3:0.493188 4:0.415738 5:-0.75 6:-0.5 7:-0.75 8:-1 9:-1 10:-1 11:-0.75 12:-0.5 13:-0.75 14:-1 15:-1 16:-1 17:-0.75 18:-0.5 19:-0.75 20:-1 21:-1 22:-1 23:-1 24:-1 25:-1 26:-0.75 27:-0.5 28:-0.75 29:-0.75 30:-0.5 31:-0.75 32:-1 33:-1 34:-1 35:-0.75 36:-0.5 37:-0.75 38:-1 39:-1 40:-1 
-0.53125 1:1 2:-0.5 3:0.493188 4:0.415738 5:-1 6:-1 7:-1 8:-0.75 9:-0.5 10:-0.75 11:-1 12:-1 13:-1 14:-1 15:-1 16:-1 17:-0.75 18:-0.5 19:-0.75 20:-1 21:-1 22:-1 23:-1 24:-1 25:-1 26:-1 27:-1 28:-1 29:-0.75 30:-0.5 31:-0.75 32:-0.75 33:-0.5 34:-0.75 35:-0.75 36:-0.5 37:-0.75 38:-0.75 39:-0.5 40:-0.75 
-0.53125 1:1 2:-0.5 3:0.493188 4:0.415738 5:-1 6:-1 7:-1 8:-0.75 9:-0.5 10:-0.75 11:-0.75 12:-0.5 13:-0.75 14:-1 15:-1 16:-1 17:-1 18:-1 19:-1 20:-0.75 21:-0.5 22:-0.75 23:-1 24:-1 25:-1 26:-1 27:-1 28:-1 29:-1 30:-1 31:-1 32:-0.75 33:-0.5 34:-0.75 35:-0.75 36:-0.5 37:-0.75 38:-0.75 39:-0.5 40:-0.75 
-0.53125 1:1 2:-0.5 3:0.493188 4:0.415738 5:-1 6:-1 7:-1 8:-1 9:-1 10:-1 11:-1 12:-1 13:-1 14:-1 15:-1 16:-1 17:-1 18:-1 19:-1 20:-0.75 21:-0.5 22:-0.75 23:-0.75 24:-0.5 25:-0.75 26:-0.75 27:-0.5 28:-0.75 29:-0.75 30:-0.5 31:-0.75 32:-0.75 33:-0.5 34:-0.75 35:-1 36:-1 37:-1 38:-0.75 39:-0.5 40:-0.75 
-0.53125 1:1 2:-0.5 3:0.493188 4:0.415738 5:-1 6:-1 7:-1 8:-1 9:-1 10:-1 11:-1 12:-1 13:-1 14:-0.75 15:-0.5 16:-0.75 17:-0.75 18:-0.5 19:-0.75 20:-1 21:-1 22:-1 23:-0.75 24:-0.5 25:-0.75 26:-1 27:-1 28:-1 29:-1 30:-1 31:-1 32:-0.75 33:-0.5 34:-0.75 35:-0.75 36:-0.5 37:-0.75 38:-0.75 39:-0.5 40:-0.75 
-0.53125 1:1 2:-0.5 3:0.493188 4:0.415738 5:-0.75 6:-0.5 7:-0.75 8:-0.75 9:-0.5 10:-0.75 11:-0.75 12:-0.5 13:-0.75 14:-0.75 15:-0.5 16:-0.75 17:-1 18:-1 19:-1 20:-1 21:-1 22:-1 23:-1 24:-1 25:-1 26:-1 27:-1 28:-1 29:-1 30:-1 31:-1 32:-1 33:-1 34:-1 35:-0.75 36:-0.5 37:-0.75 38:-0.75 39:-0.5 40:-0.75 
-0.53125 1:1 2:-0.5 3:0.493188 4:0.415738 5:-1 6:-1 7:-1 8:-0.75 9:-0.5 10:-0.75 11:-0.75 12:-0.5 13:-0.75 14:-0.75 15:-0.5 16:-0.75 17:-0.75 18:-0.5 19:-0.75 20:-1 21:-1 22:-1 23:-1 24:-1 25:-1 26:-0.75 27:-0.5 28:-0.75 29:-0.75 30:-0.5 31:-0.75 32:-1 33:-1 34:-1 35:-1 36:-1 37:-1 38:-1 39:-1 40:-1 
-0.53125 1:1 2:-0.5 3:0.493188 4:0.415738 5:-1 6:-1 7:-1 8:-0.75 9:-0.5 10:-0.75 11:-0.75 12:-0.5 13:-0.75 14:-0.75 15:-0.5 16:-0.75 17:-1 18:-1 19:-1 20:-1 21:-1 22:-1 23:-0.75 24:-0.5 25:-0.75 26:-1 27:-1 28:-1 29:-0.75 30:-0.5 31:-0.75 32:-0.75 33:-0.5 34:-0.75 35:-1 36:-1 37:-1 38:-1 39:-1 40:-1 
-0.53125 1:1 2:-0.5 3:0.493188 4:0.415738 5:-0.75 6:-0.5 7:-0.75 8:-1 9:-1 10:-1 11:-0.75 12:-0.5 13:-0.75 14:-1 15:-1 16:-1 17:-0.75 18:-0.5 19:-0.75 20:-1 21:-1 22:-1 23:-1 24:-1 25:-1 26:-0.75 27:-0.5 28:-0.75 29:-0.75 30:-0.5 31:-0.75 32:-1 33:-1 34:-1 35:-0.75 36:-0.5 37:-0.75 38:-1 39:-1 40:-1 
-0.53125 1:1 2:-0.5 3:0.493188 4:0.415738 5:-0.75 6:-0.5 7:-0.75 8:-1 9:-1 10:-1 11:-0.75 12:-0.5 13:-0.75 14:-0.75 15:-0.5 16:-0.75 17:-0.75 18:-0.5 19:-0.75 20:-0.75 21:-0.5 22:-0.75 23:-1 24:-1 25:-1 26:-0.75 27:-0.5 28:-0.75 29:-1 30:-1 31:-1 32:-1 33:-1 34:-1 35:-1 36:-1 37:-1 38:-1 39:-1 40:-1 
-0.53125 1:1 2:-0.5 3:0.493188 4:0.415738 5:-0.75 6:-0.5 7:-0.75 8:-0.75 9:-0.5 10:-0.75 11:-1 12:-1 13:-1 14:-1 15:-1 16:-1 17:-0.75 18:-0.5 19:-0.75 20:-1 21:-1 22:-1 23:-0.75 24:-0.5 25:-0.75 26:-0.75 27:-0.5 28:-0.75 29:-1 30:-1 31:-1 32:-0.75 33:-0.5 34:-0.75 35:-1 36:-1 37:-1 38:-1 39:-1 40:-1 
-0.53125 1:1 2:-0.5 3:0.493188 4:0.415738 5:-1 6:-1 7:-1 8:-1 9:-1 10:-1 11:-0.75 12:-0.5 13:-0.75 14:-0.75 15:-0.5 16:-0.75 17:-0.75 18:-0.5 19:-0.75 20:-0.75 21:-0.5 22:-0.75 23:-1 24:-1 25:-1 26:-0.75 27:-0.5 28:-0.75 29:-0.75 30:-0.5 31:-0.75 32:-1 33:-1 34:-1 35:-1 36:-1 37:-1 38:-1 39:-1 40:-1 
-0.53125 1:1 2:-0.5 3:0.493188 4:0.415738 5:-1 6:-1 7:-1 8:-0.75 9:-0.5 10:-0.75 11:-1 12:-1 13:-1 14:-0.75 15:-0.5 16:-0.75 17:-0.75 18:-0.5 19:-0.75 20:-1 21:-1 22:-1 23:-0.75 24:-0.5 25:-0.75 26:-0.75 27:-0.5 28:-0.75 29:-1 30:-1 31:-1 32:-1 33:-1 34:-1 35:-0.75 36:-0.5 37:-0.75 38:-1 39:-1 40:-1 
-0.2013583905211753 1:1 2:-0.5 3:0.493188 4:0.415738 5:-0.75 6:-0.5 7:-0.75 8:-0.75 9:-0.5 10:-0.75 11:-1 12:-1 13:-1 14:-0.75 15:-0.5 16:-0.75 17:-0.75 18:-0.5 19:-0.75 20:-1 21:-1 22:-1 23:-1 24:-1 25:-1 26:-1 27:-1 28:-1 29:-1 30:-1 31:-1 32:-0.75 33:-0.5 34:-0.75 35:-0.75 36:-0.5 37:-0.75 38:-1 39:-1 40:-1 
-0.53125 1:1 2:-0.5 3:0.493188 4:0.415738 5:-1 6:-1 7:-1 8:-0.75 9:-0.5 10:-0.75 11:-0.75 12:-0.5 13:-0.75 14:-0.75 15:-0.5 16:-0.75 17:-1 18:-1 19:-1 20:-0.75 21:-0.5 22:-0.75 23:-0.75 24:-0.5 25:-0.75 26:-1 27:-1 28:-1 29:-0.75 30:-0.5 31:-0.75 32:-1 33:-1 34:-1 35:-1 36:-1 37:-1 38:-1 39:-1 40:-1 
-0.53125 1:1 2:-0.5 3:0.493188 4:0.415738 5:-1 6:-1 7:-1 8:-0.75 9:-0.5 10:-0.75 11:-1 12:-1 13:-1 14:-1 15:-1 16:-1 17:-0.75 18:-0.5 19:-0.75 20:-0.75 21:-0.5 22:-0.75 23:-1 24:-1 25:-1 26:-1 27:-1 28:-1 29:-0.75 30:-0.5 31:-0.75 32:-1 33:-1 34:-1 35:-0.75 36:-0.5 37:-0.75 38:-0.75 39:-0.5 40:-0.75 
-0.53125 1:1 2:-0.5 3:0.493188 4:0.415738 5:-1 6:-1 7:-1 8:-0.75 9:-0.5 10:-0.75 11:-1 12:-1 13:-1 14:-1 15:-1 16:-1 17:-0.75 18:-0.5 19:-0.75 20:-1 21:-1 22:-1 23:-0.75 24:-0.5 25:-0.75 26:-0.75 27:-0.5 28:-0.75 29:-0.75 30:-0.5 31:-0.75 32:-0.75 33:-0.5 34:-0.75 35:-1 36:-1 37:-1 38:-1 39:-1 40:-1 
-0.53125 1:1 2:-0.5 3:0.493188 4:0.415738 5:-0.75 6:-0.5 7:-0.75 8:-0.75 9:-0.5 10:-0.75 11:-1 12:-1 13:-1 14:-1 15:-1 16:-1 17:-0.75 18:-0.5 19:-0.75 20:-0.75 21:-0.5 22:-0.75 23:-0.75 24:-0.5 25:-0.75 26:-1 27:-1 28:-1 29:-0.75 30:-0.5 31:-0.75 32:-1 33:-1 34:-1 35:-1 36:-1 37:-1 38:-1 39:-1 40:-1 
-0.53125 1:1 2:-0.5 3:0.493188 4:0.415738 5:-1 6:-1 7:-1 8:-0.75 9:-0.5 10:-0.75 11:-1 12:-1 13:-1 14:-0.75 15:-0.5 16:-0.75 17:-0.75 18:-0.5 19:-0.75 20:-0.75 21:-0.5 22:-0.75 23:-0.75 24:-0.5 25:-0.75 26:-1 27:-1 28:-1 29:-1 30:-1 31:-1 32:-0.75 33:-0.5 34:-0.75 35:-1 36:-1 37:-1 38:-1 39:-1 40:-1 
-0.53125 1:1 2:-0.5 3:0.493188 4:0.415738 5:-1 6:-1 7:-1 8:-1 9:-1 10:-1 11:-0.75 12:-0.5 13:-0.75 14:-0.75 15:-0.5 16:-0.75 17:-0.75 18:-0.5 19:-0.75 20:-0.75 21:-0.5 22:-0.75 23:-0.75 24:-0.5 25:-0.75 26:-1 27:-1 28:-1 29:-0.75 30:-0.5 31:-0.75 32:-1 33:-1 34:-1 35:-1 36:-1 37:-1 38:-1 39:-1 40:-1 
-0.02366249999999681 1:1 2:-0.5 3:0.508174 4:0.384615 5:-0.75 6:-0.5 8:-1 9:-1 10:-1 11:-0.75 12:-0.5 14:-1 15:-1 16:-1 17:-1 18:-1 19:-1 20:-1 21:-1 22:-1 23:-0.75 24:1 25:-0.25 27:-0.5 28:-0.75 29:-0.75 30:-0.5 31:-0.25 33:-0.5 34:-0.75 35:-1 36:-1 37:-1 38:-1 39:-1 40:-1 
-0.02366249999999681 1:1 2:-0.5 3:0.508174 4:0.384615 5:-0.75 6:-0.5 8:-1 9:-1 10:-1 11:-0.75 12:1 13:-0.25 15:-0.5 16:-0.75 17:-1 18:-1 19:-1 20:-1 21:-1 22:-1 23:-0.75 24:-0.5 25:-0.25 27:-0.5 28:-0.75 29:-1 30:-1 31:-1 32:-1 33:-1 34:-1 35:-1 36:-1 37:-1 38:-0.75 39:-0.5 
-0.02366249999999681 1:1 2:-0.5 3:0.508174 4:0.384615 6:-0.5 7:-0.75 8:-1 9:-1 10:-1 11:-1 12:-1 13:-1 14:-1 15:-1 16:-1 17:-1 18:-1 19:-1 20:-0.75 21:-0.5 22:-0.25 23:-1 24:-1 25:-1 26:-1 27:-1 28:-1 29:-0.75 30:-0.5 32:-0.75 33:-0.5 35:-0.75 36:1 37:-0.25 39:-0.5 40:-0.75 
-0.02366249999999681 1:1 2:-0.5 3:0.508174 4:0.384615 5:-1 6:-1 7:-1 8:-0.75 9:1 10:-0.25 11:-0.75 12:-0.5 14:-1 15:-1 16:-1 17:-1 18:-1 19:-1 20:-0.75 21:-0.5 22:-0.25 24:-0.5 25:-0.75 26:-0.75 27:-0.5 29:-1 30:-1 31:-1 32:-1 33:-1 34:-1 35:-1 36:-1 37:-1 39:-0.5 40:-0.75 
-0.02366249999999681 1:1 2:-0.5 3:0.508174 4:0.384615 5:-1 6:-1 7:-1 8:-1 9:-1 10:-1 11:-0.75 12:1 13:-0.25 15:-0.5 16:-0.75 17:-0.75 18:-0.5 19:-0.25 20:-1 21:-1 22:-1 23:-1 24:-1 25:-1 26:-1 27:-1 28:-1 29:-0.75 30:-0.5 33:-0.5 34:-0.75 35:-0.75 36:-0.5 38:-1 39:-1 40:-1 
-0.02366249999999681 1:1 2:-0.5 3:0.508174 4:0.384615 5:-0.75 6:-0.5 7:-0.25 8:-1 9:-1 10:-1 11:-1 12:-1 13:-1 14:-0.75 15:-0.5 17:-0.75 18:1 19:-0.25 20:-0.75 21:-0.5 24:-0.5 25:-0.75 26:-1 27:-1 28:-1 29:-1 30:-1 31:-1 32:-1 33:-1 34:-1 35:-1 36:-1 37:-1 39:-0.5 40:-0.75 
-0.02366249999999681 1:1 2:-0.5 3:0.508174 4:0.384615 5:-0.75 6:-0.5 8:-1 9:-1 10:-1 11:-0.75 12:1 13:-0.25 15:-0.5 16:-0.75 18:-0.5 19:-0.75 20:-1 21:-1 22:-1 23:-1 24:-1 25:-1 26:-1 27:-1 28:-1 29:-0.75 30:-0.5 32:-1 33:-1 34:-1 35:-0.75 36:-0.5 37:-0.25 38:-1 39:-1 40:-1 
-0.02366249999999681 1:1 2:-0.5 3:0.508174 4:0.384615 5:-1 6:-1 7:-1 8:-0.75 9:-0.5 10:-0.25 11:-1 12:-1 13:-1 15:-0.5 16:-0.75 18:-0.5 19:-0.75 20:-1 21:-1 22:-1 23:-0.75 24:-0.5 26:-1 27:-1 28:-1 29:-1 30:-1 31:-1 32:-1 33:-1 34:-1 35:-0.75 36:-0.5 38:-0.75 39:1 40:-0.25 
-0.02366249999999681 1:1 2:-0.5 3:0.508174 4:0.384615 5:-1 6:-1 7:-1 8:-0.75 9:-0.5 11:-1 12:-1 13:-1 14:-1 15:-1 16:-1 17:-1 18:-1 19:-1 20:-1 21:-1 22:-1 23:-0.75 24:-0.5 26:-0.75 27:-0.5 28:-0.25 29:-0.75 30:1 31:-0.25 33:-0.5 34:-0.75 36:-0.5 37:-0.75 38:-1 39:-1 40:-1 
-0.02366249999999681 1:1 2:-0.5 3:0.508174 4:0.384615 5:-1 6:-1 7:-1 9:-0.5 10:-0.75 11:-0.75 12:-0.5 14:-1 15:-1 16:-1 17:-1 18:-1 19:-1 20:-1 21:-1 22:-1 23:-0.75 24:-0.5 27:-0.5 28:-0.75 29:-0.75 30:1 31:-0.25 32:-1 33:-1 34:-1 35:-1 36:-1 37:-1 38:-0.75 39:-0.5 40:-0.25 
-0.02366249999999681 1:1 2:-0.5 3:0.508174 4:0.384615 5:-1 6:-1 7:-1 8:-0.75 9:-0.5 10:-0.25 11:-0.75 12:-0.5 14:-1 15:-1 16:-1 17:-0.75 18:-0.5 20:-1 21:-1 22:-1 24:-0.5 25:-0.75 26:-1 27:-1 28:-1 29:-0.75 30:1 31:-0.25 33:-0.5 34:-0.75 35:-1 36:-1 37:-1 38:-1 39:-1 40:-1 
-0.02366249999999681 1:1 2:-0.5 3:0.508174 4:0.384615 5:-1 6:-1 7:-1 8:-1 9:-1 10:-1 11:-1 12:-1 13:-1 14:-1 15:-1 16:-1 17:-0.75 18:-0.5 19:-0.25 21:-0.5 22:-0.75 23:-0.75 24:-0.5 26:-0.75 27:-0.5 29:-1 30:-1 31:-1 32:-1 33:-1 34:-1 35:-0.75 36:1 37:-0.25 39:-0.5 40:-0.75 
-0.02366249999999681 1:1 2:-0.5 3:0.508174 4:0.384615 6:-0.5 7:-0.75 8:-0.75 9:1 10:-0.25 11:-1 12:-1 13:-1 14:-0.75 15:-0.5 16:-0.25 18:-0.5 19:-0.75 20:-1 21:-1 22:-1 23:-0.75 24:-0.5 26:-0.75 27:-0.5 29:-1 30:-1 31:-1 32:-1 33:-1 34:-1 35:-1 36:-1 37:-1 38:-1 39:-1 40:-1 
-0.02366249999999681 1:1 2:-0.5 3:0.508174 4:0.384615 5:-0.75 6:-0.5 9:-0.5 10:-0.75 11:-1 12:-1 13:-1 14:-0.75 15:-0.5 16:-0.25 17:-1 18:-1 19:-1 20:-1 21:-1 22:-1 24:-0.5 25:-0.75 26:-1 27:-1 28:-1 29:-0.75 30:-0.5 32:-0.75 33:1 34:-0.25 35:-1 36:-1 37:-1 38:-1 39:-1 40:-1 
-0.02366249999999681 1:1 2:-0.5 3:0.508174 4:0.384615 5:-1 6:-1 7:-1 9:-0.5 10:-0.75 11:-0.75 12:-0.5 13:-0.25 14:-0.75 15:-0.5 17:-1 18:-1 19:-1 20:-1 21:-1 22:-1 24:-0.5 25:-0.75 26:-1 27:-1 28:-1 29:-1 30:-1 31:-1 32:-1 33:-1 34:-1 35:-0.75 36:-0.5 38:-0.75 39:1 40:-0.25 
-0.02366249999999681 1:1 2:-0.5 3:0.508174 4:0.384615 6:-0.5 7:-0.75 8:-1 9:-1 10:-1 11:-1 12:-1 13:-1 14:-0.75 15:-0.5 17:-1 18:-1 19:-1 20:-1 21:-1 22:-1 23:-0.75 24:1 25:-0.25 26:-0.75 27:-0.5 29:-0.75 30:-0.5 31:-0.25 32:-1 33:-1 34:-1 36:-0.5 37:-0.75 38:-1 39:-1 40:-1 
-0.02366249999999681 1:1 2:-0.5 3:0.508174 4:0.384615 5:-0.75 6:1 7:-0.25 8:-1 9:-1 10:-1 11:-1 12:-1 13:-1 15:-0.5 16:-0.75 17:-1 18:-1 19:-1 20:-1 21:-1 22:-1 23:-0.75 24:-0.5 27:-0.5 28:-0.75 29:-1 30:-1 31:-1 32:-1 33:-1 34:-1 35:-0.75 36:-0.5 38:-0.75 39:-0.5 40:-0.25 
-0.02366249999999681 1:1 2:-0.5 3:0.508174 4:0.384615 5:-1 6:-1 7:-1 8:-1 9:-1 10:-1 11:-1 12:-1 13:-1 14:-0.75 15:-0.5 16:-0.25 18:-0.5 19:-0.75 20:-1 21:-1 22:-1 24:-0.5 25:-0.75 26:-0.75 27:-0.5 29:-1 30:-1 31:-1 32:-0.75 33:-0.5 35:-1 36:-1 37:-1 38:-0.75 39:1 40:-0.25 
-0.02366249999999681 1:1 2:-0.5 3:0.508174 4:0.384615 5:-0.75 6:-0.5 7:-0.25 8:-1 9:-1 10:-1 11:-1 12:-1 13:-1 15:-0.5 16:-0.75 18:-0.5 19:-0.75 20:-0.75 21:-0.5 23:-1 24:-1 25:-1 26:-1 27:-1 28:-1 29:-0.75 30:-0.5 32:-0.75 33:1 34:-0.25 35:-1 36:-1 37:-1 38:-1 39:-1 40:-1 
-0.02366249999999681 1:1 2:-0.5 3:0.508174 4:0.384615 5:-1 6:-1 7:-1 8:-0.75 9:1 10:-0.25 11:-0.75 12:-0.5 13:-0.25 15:-0.5 16:-0.75 17:-0.75 18:-0.5 21:-0.5 22:-0.75 23:-1 24:-1 25:-1 26:-1 27:-1 28:-1 29:-1 30:-1 31:-1 32:-1 33:-1 34:-1 35:-0.75 36:-0.5 38:-1 39:-1 40:-1 
-0.02366249999999681 1:1 2:-0.5 3:0.508174 4:0.384615 5:-1 6:-1 7:-1 9:-0.5 10:-0.75 11:-1 12:-1 13:-1 14:-0.75 15:-0.5 17:-1 18:-1 19:-1 20:-1 21:-1 22:-1 23:-1 24:-1 25:-1 26:-0.75 27:1 28:-0.25 29:-1 30:-1 31:-1 33:-0.5 34:-0.75 35:-0.75 36:-0.5 37:-0.25 38:-0.75 39:-0.5 
-0.02366249999999681 1:1 2:-0.5 3:0.508174 4:0.384615 5:-1 6:-1 7:-1 8:-0.75 9:-0.5 11:-1 12:-1 13:-1 14:-0.75 15:1 16:-0.25 18:-0.5 19:-0.75 20:-1 21:-1 22:-1 23:-0.75 24:-0.5 25:-0.25 26:-1 27:-1 28:-1 29:-1 30:-1 31:-1 32:-1 33:-1 34:-1 36:-0.5 37:-0.75 38:-0.75 39:-0.5 
-0.02366249999999681 1:1 2:-0.5 3:0.508174 4:0.384615 5:-1 6:-1 7:-1 9:-0.5 10:-0.75 11:-1 12:-1 13:-1 14:-0.75 15:1 16:-0.25 17:-1 18:-1 19:-1 21:-0.5 22:-0.75 23:-0.75 24:-0.5 26:-1 27:-1 28:-1 29:-1 30:-1 31:-1 32:-0.75 33:-0.5 35:-0.75 36:-0.5 37:-0.25 38:-1 39:-1 40:-1 
-0.02366249999999681 1:1 2:-0.5 3:0.508174 4:0.384615 5:-1 6:-1 7:-1 8:-0.75 9:-0.5 10:-0.25 12:-0.5 13:-0.75 14:-0.75 15:1 16:-0.25 17:-0.75 18:-0.5 21:-0.5 22:-0.75 23:-1 24:-1 25:-1 26:-0.75 27:-0.5 29:-1 30:-1 31:-1 32:-1 33:-1 34:-1 35:-1 36:-1 37:-1 38:-1 39:-1 40:-1 
-0.02366249999999681 1:1 2:-0.5 3:0.508174 4:0.384615 5:-1 6:-1 7:-1 9:-0.5 10:-0.75 11:-1 12:-1 13:-1 14:-1 15:-1 16:-1 17:-0.75 18:-0.5 20:-1 21:-1 22:-1 24:-0.5 25:-0.75 26:-1 27:-1 28:-1 29:-0.75 30:1 31:-0.25 32:-0.75 33:-0.5 34:-0.25 35:-0.75 36:-0.5 38:-1 39:-1 40:-1 
-0.02366249999999681 1:1 2:-0.5 3:0.508174 4:0.384615 5:-0.75 6:-0.5 8:-1 9:-1 10:-1 11:-0.75 12:-0.5 14:-1 15:-1 16:-1 17:-0.75 18:-0.5 19:-0.25 21:-0.5 22:-0.75 24:-0.5 25:-0.75 26:-1 27:-1 28:-1 29:-1 30:-1 31:-1 32:-0.75 33:1 34:-0.25 35:-1 36:-1 37:-1 38:-1 39:-1 40:-1 
-0.02366249999999681 1:1 2:-0.5 3:0.508174 4:0.384615 5:-1 6:-1 7:-1 8:-1 9:-1 10:-1 12:-0.5 13:-0.75 14:-0.75 15:-0.5 17:-1 18:-1 19:-1 20:-1 21:-1 22:-1 23:-1 24:-1 25:-1 26:-0.75 27:-0.5 29:-0.75 30:1 31:-0.25 32:-1 33:-1 34:-1 36:-0.5 37:-0.75 38:-0.75 39:-0.5 40:-0.25 
-0.02366249999999681 1:1 2:-0.5 3:0.508174 4:0.384615 6:-0.5 7:-0.75 8:-0.75 9:-0.5 11:-0.75 12:1 13:-0.25 14:-1 15:-1 16:-1 17:-1 18:-1 19:-1 20:-1 21:-1 22:-1 23:-1 24:-1 25:-1 26:-0.75 27:-0.5 28:-0.25 30:-0.5 31:-0.75 32:-1 33:-1 34:-1 35:-1 36:-1 37:-1 38:-0.75 39:-0.5 
-0.02366249999999681 1:1 2:-0.5 3:0.508174 4:0.384615 5:-0.75 6:-0.5 8:-0.75 9:1 10:-0.25 12:-0.5 13:-0.75 14:-0.75 15:-0.5 16:-0.25 17:-1 18:-1 19:-1 20:-1 21:-1 22:-1 23:-0.75 24:-0.5 27:-0.5 28:-0.75 29:-1 30:-1 31:-1 32:-1 33:-1 34:-1 35:-1 36:-1 37:-1 38:-1 39:-1 40:-1 
-0.02366249999999681 1:1 2:-0.5 3:0.508174 4:0.384615 5:-1 6:-1 7:-1 8:-1 9:-1 10:-1 11:-0.75 12:-0.5 14:-1 15:-1 16:-1 18:-0.5 19:-0.75 20:-0.75 21:1 22:-0.25 23:-1 24:-1 25:-1 27:-0.5 28:-0.75 29:-1 30:-1 31:-1 32:-1 33:-1 34:-1 35:-0.75 36:-0.5 37:-0.25 38:-0.75 39:-0.5 
-0.53125 1:1 2:-0.5 3:0.498638 4:0.390628 5:-1 6:-1 7:-1 8:-0.5 9:1 10:-0.25 11:-0.5 12:-0.5 14:-1 15:-1 16:-1 17:-0.75 18:1 20:-0.75 21:-0.5 22:-0.25 23:-1 24:-1 25:-1 26:-0.75 27:-0.5 28:-0.75 29:-0.75 30:-0.5 31:-0.75 32:-1 33:-1 34:-1 35:-1 36:-1 37:-1 38:-1 39:-1 40:-1 
-0.53125 1:1 2:-0.5 3:0.498638 4:0.390628 5:-0.75 6:-0.5 7:-0.25 8:-0.75 9:-0.5 10:-0.75 11:-1 12:-1 13:-1 14:-1 15:-1 16:-1 17:-0.5 18:1 19:-0.25 20:-0.75 21:-0.5 22:-0.75 23:-0.75 24:1 26:-1 27:-1 28:-1 29:-1 30:-1 31:-1 32:-0.5 33:-0.5 35:-1 36:-1 37:-1 38:-1 39:-1 40:-1 
-0.53125 1:1 2:-0.5 3:0.498638 4:0.390628 5:-0.75 6:-0.5 7:-0.25 8:-0.75 9:-0.5 10:-0.75 11:-1 12:-1 13:-1 14:-0.75 15:1 17:-0.75 18:-0.5 19:-0.75 20:-1 21:-1 22:-1 23:-1 24:-1 25:-1 26:-1 27:-1 28:-1 29:-0.5 30:-0.5 32:-1 33:-1 34:-1 35:-1 36:-1 37:-1 38:-0.5 39:1 40:-0.25 
-0.53125 1:1 2:-0.5 3:0.498638 4:0.390628 5:-0.75 6:1 8:-1 9:-1 10:-1 11:-1 12:-1 13:-1 14:-1 15:-1 16:-1 17:-0.75 18:-0.5 19:-0.75 20:-1 21:-1 22:-1 23:-0.5 24:1 25:-0.25 26:-1 27:-1 28:-1 29:-1 30:-1 31:-1 32:-0.5 33:-0.5 35:-0.75 36:-0.5 37:-0.75 38:-0.75 39:-0.5 40:-0.25 
-0.53125 1:1 2:-0.5 3:0.498638 4:0.390628 5:-0.5 6:-0.5 8:-0.5 9:1 10:-0.25 11:-1 12:-1 13:-1 14:-1 15:-1 16:-1 17:-0.75 18:-0.5 19:-0.75 20:-0.75 21:-0.5 22:-0.25 23:-1 24:-1 25:-1 26:-0.75 27:1 29:-0.75 30:-0.5 31:-0.75 32:-1 33:-1 34:-1 35:-1 36:-1 37:-1 38:-1 39:-1 40:-1 
-0.53125 1:1 2:-0.5 3:0.498638 4:0.390628 5:-1 6:-1 7:-1 8:-1 9:-1 10:-1 11:-0.75 12:-0.5 13:-0.75 14:-0.75 15:1 17:-0.75 18:-0.5 19:-0.75 20:-0.75 21:-0.5 22:-0.25 23:-1 24:-1 25:-1 26:-1 27:-1 28:-1 29:-0.5 30:-0.5 32:-1 33:-1 34:-1 35:-1 36:-1 37:-1 38:-0.5 39:1 40:-0.25 
-0.53125 1:1 2:-0.5 3:0.498638 4:0.390628 5:-1 6:-1 7:-1 8:-0.75 9:-0.5 10:-0.25 11:-1 12:-1 13:-1 14:-0.5 15:1 16:-0.25 17:-0.75 18:1 20:-0.5 21:-0.5 23:-1 24:-1 25:-1 26:-0.75 27:-0.5 28:-0.75 29:-1 30:-1 31:-1 32:-1 33:-1 34:-1 35:-1 36:-1 37:-1 38:-0.75 39:-0.5 40:-0.75 
-0.53125 1:1 2:-0.5 3:0.498638 4:0.390628 5:-1 6:-1 7:-1 8:-0.75 9:1 11:-0.5 12:-0.5 14:-0.75 15:-0.5 16:-0.25 17:-0.5 18:1 19:-0.25 20:-1 21:-1 22:-1 23:-1 24:-1 25:-1 26:-1 27:-1 28:-1 29:-0.75 30:-0.5 31:-0.75 32:-0.75 33:-0.5 34:-0.75 35:-1 36:-1 37:-1 38:-1 39:-1 40:-1 
-0.53125 1:1 2:-0.5 3:0.498638 4:0.390628 5:-0.75 6:-0.5 7:-0.75 8:-0.75 9:-0.5 10:-0.25 11:-1 12:-1 13:-1 14:-0.75 15:1 17:-1 18:-1 19:-1 20:-1 21:-1 22:-1 23:-1 24:-1 25:-1 26:-1 27:-1 28:-1 29:-0.75 30:-0.5 31:-0.75 32:-1 33:-1 34:-1 35:-0.5 36:-0.5 38:-0.5 39:1 40:-0.25 
-0.53125 1:1 2:-0.5 3:0.498638 4:0.390628 5:-1 6:-1 7:-1 8:-1 9:-1 10:-1 11:-0.5 12:1 13:-0.25 14:-1 15:-1 16:-1 17:-0.75 18:-0.5 19:-0.25 20:-1 21:-1 22:-1 23:-0.5 24:-0.5 26:-1 27:-1 28:-1 29:-0.75 30:-0.5 31:-0.75 32:-1 33:-1 34:-1 35:-0.75 36:-0.5 37:-0.75 38:-0.75 39:1 
-0.53125 1:1 2:-0.5 3:0.498638 4:0.390628 5:-1 6:-1 7:-1 8:-1 9:-1 10:-1 11:-1 12:-1 13:-1 14:-0.5 15:-0.5 17:-0.75 18:-0.5 19:-0.75 20:-1 21:-1 22:-1 23:-1 24:-1 25:-1 26:-0.5 27:1 28:-0.25 29:-1 30:-1 31:-1 32:-0.75 33:-0.5 34:-0.75 35:-0.75 36:-0.5 37:-0.25 38:-0.75 39:1 
-0.53125 1:1 2:-0.5 3:0.498638 4:0.390628 5:-0.75 6:1 8:-1 9:-1 10:-1 11:-0.5 12:1 13:-0.25 14:-0.75 15:-0.5 16:-0.75 17:-1 18:-1 19:-1 20:-1 21:-1 22:-1 23:-1 24:-1 25:-1 26:-0.5 27:-0.5 29:-1 30:-1 31:-1 32:-1 33:-1 34:-1 35:-0.75 36:-0.5 37:-0.75 38:-0.75 39:-0.5 40:-0.25 
-0.53125 1:1 2:-0.5 3:0.498638 4:0.390628 5:-0.5 6:-0.5 8:-1 9:-1 10:-1 11:-0.5 12:1 13:-0.25 14:-1 15:-1 16:-1 17:-0.75 18:1 20:-1 21:-1 22:-1 23:-0.75 24:-0.5 25:-0.75 26:-0.75 27:-0.5 28:-0.75 29:-1 30:-1 31:-1 32:-1 33:-1 34:-1 35:-0.75 36:-0.5 37:-0.25 38:-1 39:-1 40:-1 
-0.53125 1:1 2:-0.5 3:0.498638 4:0.390628 5:-1 6:-1 7:-1 8:-1 9:-1 10:-1 11:-1 12:-1 13:-1 14:-1 15:-1 16:-1 17:-1 18:-1 19:-1 20:-0.75 21:-0.5 22:-0.75 23:-0.5 24:1 25:-0.25 26:-0.75 27:-0.5 28:-0.75 29:-0.5 30:-0.5 32:-1 33:-1 34:-1 35:-0.75 36:-0.5 37:-0.25 38:-0.75 39:1 
-0.53125 1:1 2:-0.5 3:0.498638 4:0.390628 5:-0.75 6:-0.5 7:-0.75 8:-0.75 9:-0.5 10:-0.25 11:-1 12:-1 13:-1 14:-0.75 15:1 17:-0.75 18:-0.5 19:-0.75 20:-1 21:-1 22:-1 23:-1 24:-1 25:-1 26:-0.5 27:-0.5 29:-1 30:-1 31:-1 32:-1 33:-1 34:-1 35:-0.5 36:1 37:-0.25 38:-1 39:-1 40:-1 
-0.53125 1:1 2:-0.5 3:0.498638 4:0.390628 5:-1 6:-1 7:-1 8:-0.75 9:-0.5 10:-0.25 11:-1 12:-1 13:-1 14:-1 15:-1 16:-1 17:-0.75 18:-0.5 19:-0.75 20:-0.75 21:1 23:-0.75 24:-0.5 25:-0.75 26:-1 27:-1 28:-1 29:-1 30:-1 31:-1 32:-0.5 33:1 34:-0.25 35:-1 36:-1 37:-1 38:-0.5 39:-0.5 
-0.53125 1:1 2:-0.5 3:0.498638 4:0.390628 5:-1 6:-1 7:-1 8:-1 9:-1 10:-1 11:-0.5 12:-0.5 14:-1 15:-1 16:-1 17:-0.75 18:-0.5 19:-0.75 20:-0.75 21:-0.5 22:-0.75 23:-1 24:-1 25:-1 26:-0.75 27:1 29:-1 30:-1 31:-1 32:-0.75 33:-0.5 34:-0.25 35:-1 36:-1 37:-1 38:-0.5 39:1 40:-0.25 
-0.53125 1:1 2:-0.5 3:0.498638 4:0.390628 5:-1 6:-1 7:-1 8:-1 9:-1 10:-1 11:-0.75 12:-0.5 13:-0.25 14:-0.75 15:-0.5 16:-0.75 17:-0.5 18:1 19:-0.25 20:-1 21:-1 22:-1 23:-0.75 24:1 26:-0.75 27:-0.5 28:-0.75 29:-1 30:-1 31:-1 32:-0.5 33:-0.5 35:-1 36:-1 37:-1 38:-1 39:-1 40:-1 
-0.53125 1:1 2:-0.5 3:0.498638 4:0.390628 5:-0.5 6:-0.5 8:-0.75 9:-0.5 10:-0.25 11:-0.5 12:1 13:-0.25 14:-1 15:-1 16:-1 17:-1 18:-1 19:-1 20:-1 21:-1 22:-1 23:-0.75 24:-0.5 25:-0.75 26:-0.75 27:1 29:-0.75 30:-0.5 31:-0.75 32:-1 33:-1 34:-1 35:-1 36:-1 37:-1 38:-1 39:-1 40:-1 
-0.53125 1:1 2:-0.5 3:0.498638 4:0.390628 5:-0.75 6:-0.5 7:-0.75 8:-1 9:-1 10:-1 11:-0.75 12:-0.5 13:-0.25 14:-0.75 15:-0.5 16:-0.75 17:-0.5 18:1 19:-0.25 20:-1 21:-1 22:-1 23:-1 24:-1 25:-1 26:-1 27:-1 28:-1 29:-1 30:-1 31:-1 32:-0.5 33:-0.5 35:-0.75 36:1 38:-1 39:-1 40:-1 
-0.53125 1:1 2:-0.5 3:0.498638 4:0.390628 5:-1 6:-1 7:-1 8:-1 9:-1 10:-1 11:-0.5 12:-0.5 14:-1 15:-1 16:-1 17:-0.75 18:1 20:-1 21:-1 22:-1 23:-0.75 24:-0.5 25:-0.25 26:-1 27:-1 28:-1 29:-0.75 30:-0.5 31:-0.75 32:-0.5 33:1 34:-0.25 35:-0.75 36:-0.5 37:-0.75 38:-1 39:-1 40:-1 
-0.53125 1:1 2:-0.5 3:0.498638 4:0.390628 5:-0.5 6:1 7:-0.25 8:-1 9:-1 10:-1 11:-1 12:-1 13:-1 14:-0.75 15:-0.5 16:-0.75 17:-0.75 18:-0.5 19:-0.75 20:-1 21:-1 22:-1 23:-1 24:-1 25:-1 26:-0.75 27:-0.5 28:-0.25 29:-1 30:-1 31:-1 32:-0.75 33:1 35:-0.5 36:-0.5 38:-1 39:-1 40:-1 
-0.53125 1:1 2:-0.5 3:0.498638 4:0.390628 5:-0.75 6:-0.5 7:-0.75 8:-0.75 9:-0.5 10:-0.25 11:-1 12:-1 13:-1 14:-0.75 15:-0.5 16:-0.75 17:-0.5 18:1 19:-0.25 20:-1 21:-1 22:-1 23:-1 24:-1 25:-1 26:-1 27:-1 28:-1 29:-0.5 30:-0.5 32:-0.75 33:1 35:-1 36:-1 37:-1 38:-1 39:-1 40:-1 
-0.53125 1:1 2:-0.5 3:0.498638 4:0.390628 5:-0.75 6:-0.5 7:-0.75 8:-0.5 9:1 10:-0.25 11:-0.75 12:1 14:-1 15:-1 16:-1 17:-1 18:-1 19:-1 20:-0.75 21:-0.5 22:-0.25 23:-0.75 24:-0.5 25:-0.75 26:-1 27:-1 28:-1 29:-0.5 30:-0.5 32:-1 33:-1 34:-1 35:-1 36:-1 37:-1 38:-1 39:-1 40:-1 
-0.53125 1:1 2:-0.5 3:0.498638 4:0.390628 5:-0.75 6:-0.5 7:-0.25 8:-1 9:-1 10:-1 11:-0.75 12:1 14:-1 15:-1 16:-1 17:-0.75 18:-0.5 19:-0.75 20:-0.5 21:1 22:-0.25 23:-1 24:-1 25:-1 26:-0.75 27:-0.5 28:-0.75 29:-1 30:-1 31:-1 32:-0.5 33:-0.5 35:-1 36:-1 37:-1 38:-1 39:-1 40:-1 
-0.53125 1:1 2:-0.5 3:0.498638 4:0.390628 5:-1 6:-1 7:-1 8:-0.75 9:-0.5 10:-0.75 11:-1 12:-1 13:-1 14:-0.5 15:1 16:-0.25 17:-0.75 18:-0.5 19:-0.25 20:-0.75 21:-0.5 22:-0.75 23:-0.75 24:1 26:-1 27:-1 28:-1 29:-1 30:-1 31:-1 32:-1 33:-1 34:-1 35:-1 36:-1 37:-1 38:-0.5 39:-0.5 
-0.53125 1:1 2:-0.5 3:0.498638 4:0.390628 5:-1 6:-1 7:-1 8:-1 9:-1 10:-1 11:-1 12:-1 13:-1 14:-0.5 15:1 16:-0.25 17:-1 18:-1 19:-1 20:-1 21:-1 22:-1 23:-0.75 24:-0.5 25:-0.25 26:-0.75 27:1 29:-1 30:-1 31:-1 32:-0.5 33:-0.5 35:-0.75 36:-0.5 37:-0.75 38:-0.75 39:-0.5 40:-0.75 
-0.53125 1:1 2:-0.5 3:0.498638 4:0.390628 5:-1 6:-1 7:-1 8:-0.75 9:1 11:-0.75 12:-0.5 13:-0.75 14:-1 15:-1 16:-1 17:-1 18:-1 19:-1 20:-0.75 21:-0.5 22:-0.25 23:-1 24:-1 25:-1 26:-1 27:-1 28:-1 29:-0.5 30:1 31:-0.25 32:-0.5 33:-0.5 35:-0.75 36:-0.5 37:-0.75 38:-1 39:-1 40:-1 
-0.53125 1:1 2:-0.5 3:0.498638 4:0.390628 5:-0.75 6:1 8:-0.5 9:-0.5 11:-1 12:-1 13:-1 14:-1 15:-1 16:-1 17:-0.75 18:-0.5 19:-0.75 20:-1 21:-1 22:-1 23:-0.5 24:1 25:-0.25 26:-0.75 27:-0.5 28:-0.75 29:-0.75 30:-0.5 31:-0.25 32:-1 33:-1 34:-1 35:-1 36:-1 37:-1 38:-1 39:-1 40:-1 
-0.53125 1:1 2:-0.5 3:0.498638 4:0.390628 5:-1 6:-1 7:-1 8:-0.5 9:-0.5 11:-0.75 12:-0.5 13:-0.25 14:-1 15:-1 16:-1 17:-0.75 18:1 20:-1 21:-1 22:-1 23:-1 24:-1 25:-1 26:-1 27:-1 28:-1 29:-0.75 30:-0.5 31:-0.75 32:-0.75 33:-0.5 34:-0.75 35:-0.5 36:1 37:-0.25 38:-1 39:-1 40:-1 
-0.53125 1:1 2:-0.5 3:0.452316 4:0.35809 5:-0.75 6:-0.5 7:-0.75 8:-0.75 9:-0.5 10:-0.75 11:-1 12:-1 13:-1 14:-1 15:-1 16:-1 17:-0.75 18:-0.5 19:-0.75 20:-0.75 21:-0.5 22:-0.75 23:-1 24:-1 25:-1 26:-0.75 27:-0.5 28:-0.75 29:-1 30:-1 31:-1 32:-1 33:-1 34:-1 35:-1 36:-1 37:-1 38:-0.75 39:-0.5 40:-0.75 
-0.53125 1:1 2:-0.5 3:0.452316 4:0.35809 5:-0.75 6:-0.5 7:-0.75 8:-1 9:-1 10:-1 11:-0.75 12:-0.5 13:-0.75 14:-0.75 15:-0.5 16:-0.75 17:-1 18:-1 19:-1 20:-0.75 21:-0.5 22:-0.75 23:-0.75 24:-0.5 25:-0.75 26:-1 27:-1 28:-1 29:-0.75 30:-0.5 31:-0.75 32:-1 33:-1 34:-1 35:-1 36:-1 37:-1 38:-1 39:-1 40:-1 
-0.53125 1:1 2:-0.5 3:0.452316 4:0.35809 5:-0.75 6:-0.5 7:-0.75 8:-0.75 9:-0.5 10:-0.75 11:-1 12:-1 13:-1 14:-0.75 15:-0.5 16:-0.75 17:-0.75 18:-0.5 19:-0.75 20:-1 21:-1 22:-1 23:-1 24:-1 25:-1 26:-1 27:-1 28:-1 29:-1 30:-1 31:-1 32:-0.75 33:-0.5 34:-0.75 35:-0.75 36:-0.5 37:-0.75 38:-1 39:-1 40:-1 
-0.53125 1:1 2:-0.5 3:0.452316 4:0.35809 5:-0.75 6:-0.5 7:-0.75 8:-0.75 9:-0.5 10:-0.75 11:-1 12:-1 13:-1 14:-1 15:-1 16:-1 17:-1 18:-1 19:-1 20:-1 21:-1 22:-1 23:-0.75 24:-0.5 25:-0.75 26:-1 27:-1 28:-1 29:-0.75 30:-0.5 31:-0.75 32:-1 33:-1 34:-1 35:-0.75 36:-0.5 37:-0.75 38:-0.75 39:-0.5 40:-0.75 
-0.53125 1:1 2:-0.5 3:0.452316 4:0.35809 5:-0.75 6:-0.5 7:-0.75 8:-0.75 9:-0.5 10:-0.75 11:-1 12:-1 13:-1 14:-0.75 15:-0.5 16:-0.75 17:-0.75 18:-0.5 19:-0.75 20:-0.75 21:-0.5 22:-0.75 23:-1 24:-1 25:-1 26:-0.75 27:-0.5 28:-0.75 29:-1 30:-1 31:-1 32:-1 33:-1 34:-1 35:-1 36:-1 37:-1 38:-1 39:-1 40:-1 
-0.53125 1:1 2:-0.5 3:0.452316 4:0.35809 5:-0.75 6:-0.5 7:-0.75 8:-0.75 9:-0.5 10:-0.75 11:-0.75 12:-0.5 13:-0.75 14:-1 15:-1 16:-1 17:-1 18:-1 19:-1 20:-1 21:-1 22:-1 23:-0.75 24:-0.5 25:-0.75 26:-0.75 27:-0.5 28:-0.75 29:-1 30:-1 31:-1 32:-0.75 33:-0.5 34:-0.75 35:-1 36:-1 37:-1 38:-1 39:-1 40:-1 
-0.53125 1:1 2:-0.5 3:0.452316 4:0.35809 5:-1 6:-1 7:-1 8:-0.75 9:-0.5 10:-0.75 11:-0.75 12:-0.5 13:-0.75 14:-0.75 15:-0.5 16:-0.75 17:-1 18:-1 19:-1 20:-0.75 21:-0.5 22:-0.75 23:-0.75 24:-0.5 25:-0.75 26:-1 27:-1 28:-1 29:-1 30:-1 31:-1 32:-1 33:-1 34:-1 35:-0.75 36:-0.5 37:-0.75 38:-1 39:-1 40:-1 
-0.53125 1:1 2:-0.5 3:0.452316 4:0.35809 5:-1 6:-1 7:-1 8:-1 9:-1 10:-1 11:-0.75 12:-0.5 13:-0.75 14:-1 15:-1 16:-1 17:-0.75 18:-0.5 19:-0.75 20:-1 21:-1 22:-1 23:-0.75 24:-0.5 25:-0.75 26:-1 27:-1 28:-1 29:-0.75 30:-0.5 31:-0.75 32:-0.75 33:-0.5 34:-0.75 35:-0.75 36:-0.5 37:-0.75 38:-1 39:-1 40:-1 
-0.53125 1:1 2:-0.5 3:0.452316 4:0.35809 5:-0.75 6:-0.5 7:-0.75 8:-1 9:-1 10:-1 11:-1 12:-1 13:-1 14:-1 15:-1 16:-1 17:-0.75 18:-0.5 19:-0.75 20:-1 21:-1 22:-1 23:-1 24:-1 25:-1 26:-0.75 27:-0.5 28:-0.75 29:-1 30:-1 31:-1 32:-0.75 33:-0.5 34:-0.75 35:-0.75 36:-0.5 37:-0.75 38:-0.75 39:-0.5 40:-0.75 
-0.53125 1:1 2:-0.5 3:0.452316 4:0.35809 5:-1 6:-1 7:-1 8:-1 9:-1 10:-1 11:-0.75 12:-0.5 13:-0.75 14:-0.75 15:-0.5 16:-0.75 17:-0.75 18:-0.5 19:-0.75 20:-1 21:-1 22:-1 23:-0.75 24:-0.5 25:-0.75 26:-1 27:-1 28:-1 29:-0.75 30:-0.5 31:-0.75 32:-0.75 33:-0.5 34:-0.75 35:-1 36:-1 37:-1 38:-1 39:-1 40:-1 
-0.53125 1:1 2:-0.5 3:0.452316 4:0.35809 5:-0.75 6:-0.5 7:-0.75 8:-0.75 9:-0.5 10:-0.75 11:-1 12:-1 13:-1 14:-0.75 15:-0.5 16:-0.75 17:-1 18:-1 19:-1 20:-1 21:-1 22:-1 23:-0.75 24:-0.5 25:-0.75 26:-1 27:-1 28:-1 29:-1 30:-1 31:-1 32:-0.75 33:-0.5 34:-0.75 35:-0.75 36:-0.5 37:-0.75 38:-1 39:-1 40:-1 
-0.53125 1:1 2:-0.5 3:0.452316 4:0.35809 5:-1 6:-1 7:-1 8:-1 9:-1 10:-1 11:-0.75 12:-0.5 13:-0.75 14:-1 15:-1 16:-1 17:-0.75 18:-0.5 19:-0.75 20:-0.75 21:-0.5 22:-0.75 23:-0.75 24:-0.5 25:-0.75 26:-0.75 27:-0.5 28:-0.75 29:-1 30:-1 31:-1 32:-1 33:-1 34:-1 35:-0.75 36:-0.5 37:-0.75 38:-1 39:-1 40:-1 
-0.53125 1:1 2:-0.5 3:0.452316 4:0.35809 5:-1 6:-1 7:-1 8:-0.75 9:-0.5 10:-0.75 11:-0.75 12:-0.5 13:-0.75 14:-0.75 15:-0.5 16:-0.75 17:-1 18:-1 19:-1 20:-0.75 21:-0.5 22:-0.75 23:-1 24:-1 25:-1 26:-1 27:-1 28:-1 29:-1 30:-1 31:-1 32:-1 33:-1 34:-1 35:-0.75 36:-0.5 37:-0.75 38:-0.75 39:-0.5 40:-0.75 
-0.53125 1:1 2:-0.5 3:0.452316 4:0.35809 5:-1 6:-1 7:-1 8:-0.75 9:-0.5 10:-0.75 11:-0.75 12:-0.5 13:-0.75 14:-0.75 15:-0.5 16:-0.75 17:-1 18:-1 19:-1 20:-1 21:-1 22:-1 23:-0.75 24:-0.5 25:-0.75 26:-1 27:-1 28:-1 29:-1 30:-1 31:-1 32:-0.75 33:-0.5 34:-0.75 35:-1 36:-1 37:-1 38:-0.75 39:-0.5 40:-0.75 
-0.53125 1:1 2:-0.5 3:0.452316 4:0.35809 5:-0.75 6:-0.5 7:-0.75 8:-0.75 9:-0.5 10:-0.75 11:-1 12:-1 13:-1 14:-0.75 15:-0.5 16:-0.75 17:-1 18:-1 19:-1 20:-0.75 21:-0.5 22:-0.75 23:-0.75 24:-0.5 25:-0.75 26:-1 27:-1 28:-1 29:-1 30:-1 31:-1 32:-1 33:-1 34:-1 35:-0.75 36:-0.5 37:-0.75 38:-1 39:-1 40:-1 
-0.53125 1:1 2:-0.5 3:0.452316 4:0.35809 5:-0.75 6:-0.5 7:-0.75 8:-0.75 9:-0.5 10:-0.75 11:-0.75 12:-0.5 13:-0.75 14:-1 15:-1 16:-1 17:-1 18:-1 19:-1 20:-1 21:-1 22:-1 23:-1 24:-1 25:-1 26:-0.75 27:-0.5 28:-0.75 29:-1 30:-1 31:-1 32:-1 33:-1 34:-1 35:-0.75 36:-0.5 37:-0.75 38:-0.75 39:-0.5 40:-0.75 
-0.53125 1:1 2:-0.5 3:0.452316 4:0.35809 5:-1 6:-1 7:-1 8:-0.75 9:-0.5 10:-0.75 11:-0.75 12:-0.5 13:-0.75 14:-1 15:-1 16:-1 17:-1 18:-1 19:-1 20:-0.75 21:-0.5 22:-0.75 23:-0.75 24:-0.5 25:-0.75 26:-1 27:-1 28:-1 29:-1 30:-1 31:-1 32:-0.75 33:-0.5 34:-0.75 35:-1 36:-1 37:-1 38:-0.75 39:-0.5 40:-0.75 
-0.53125 1:1 2:-0.5 3:0.452316 4:0.35809 5:-1 6:-1 7:-1 8:-1 9:-1 10:-1 11:-0.75 12:-0.5 13:-0.75 14:-1 15:-1 16:-1 17:-0.75 18:-0.5 19:-0.75 20:-1 21:-1 22:-1 23:-0.75 24:-0.5 25:-0.75 26:-0.75 27:-0.5 28:-0.75 29:-0.75 30:-0.5 31:-0.75 32:-1 33:-1 34:-1 35:-1 36:-1 37:-1 38:-0.75 39:-0.5 40:-0.75 
-0.53125 1:1 2:-0.5 3:0.452316 4:0.35809 5:-1 6:-1 7:-1 8:-1 9:-1 10:-1 11:-0.75 12:-0.5 13:-0.75 14:-0.75 15:-0.5 16:-0.75 17:-0.75 18:-0.5 19:-0.75 20:-0.75 21:-0.5 22:-0.75 23:-1 24:-1 25:-1 26:-1 27:-1 28:-1 29:-0.75 30:-0.5 31:-0.75 32:-1 33:-1 34:-1 35:-0.75 36:-0.5 37:-0.75 38:-1 39:-1 40:-1 
-0.53125 1:1 2:-0.5 3:0.452316 4:0.35809 5:-1 6:-1 7:-1 8:-0.75 9:-0.5 10:-0.75 11:-0.75 12:-0.5 13:-0.75 14:-0.75 15:-0.5 16:-0.75 17:-0.75 18:-0.5 19:-0.75 20:-0.75 21:-0.5 22:-0.75 23:-1 24:-1 25:-1 26:-0.75 27:-0.5 28:-0.75 29:-1 30:-1 31:-1 32:-1 33:-1 34:-1 35:-1 36:-1 37:-1 38:-1 39:-1 40:-1 
-0.53125 1:1 2:-0.5 3:0.452316 4:0.35809 5:-0.75 6:-0.5 7:-0.75 8:-1 9:-1 10:-1 11:-1 12:-1 13:-1 14:-0.75 15:-0.5 16:-0.75 17:-0.75 18:-0.5 19:-0.75 20:-0.75 21:-0.5 22:-0.75 23:-0.75 24:-0.5 25:-0.75 26:-1 27:-1 28:-1 29:-1 30:-1 31:-1 32:-1 33:-1 34:-1 35:-1 36:-1 37:-1 38:-0.75 39:-0.5 40:-0.75 
-0.53125 1:1 2:-0.5 3:0.452316 4:0.35809 5:-0.75 6:-0.5 7:-0.75 8:-1 9:-1 10:-1 11:-1 12:-1 13:-1 14:-0.75 15:-0.5 16:-0.75 17:-0.75 18:-0.5 19:-0.75 20:-1 21:-1 22:-1 23:-0.75 24:-0.5 25:-0.75 26:-0.75 27:-0.5 28:-0.75 29:-1 30:-1 31:-1 32:-0.75 33:-0.5 34:-0.75 35:-1 36:-1 37:-1 38:-1 39:-1 40:-1 
-0.53125 1:1 2:-0.5 3:0.452316 4:0.35809 5:-0.75 6:-0.5 7:-0.75 8:-0.75 9:-0.5 10:-0.75 11:-1 12:-1 13:-1 14:-1 15:-1 16:-1 17:-0.75 18:-0.5 19:-0.75 20:-1 21:-1 22:-1 23:-1 24:-1 25:-1 26:-1 27:-1 28:-1 29:-0.75 30:-0.5 31:-0.75 32:-0.75 33:-0.5 34:-0.75 35:-0.75 36:-0.5 37:-0.75 38:-1 39:-1 40:-1 
-0.53125 1:1 2:-0.5 3:0.452316 4:0.35809 5:-1 6:-1 7:-1 8:-0.75 9:-0.5 10:-0.75 11:-1 12:-1 13:-1 14:-0.75 15:-0.5 16:-0.75 17:-0.75 18:-0.5 19:-0.75 20:-1 21:-1 22:-1 23:-0.75 24:-0.5 25:-0.75 26:-1 27:-1 28:-1 29:-0.75 30:-0.5 31:-0.75 32:-1 33:-1 34:-1 35:-0.75 36:-0.5 37:-0.75 38:-1 39:-1 40:-1 
-0.53125 1:1 2:-0.5 3:0.452316 4:0.35809 5:-1 6:-1 7:-1 8:-0.75 9:-0.5 10:-0.75 11:-1 12:-1 13:-1 14:-0.75 15:-0.5 16:-0.75 17:-0.75 18:-0.5 19:-0.75 20:-1 21:-1 22:-1 23:-0.75 24:-0.5 25:-0.75 26:-1 27:-1 28:-1 29:-1 30:-1 31:-1 32:-0.75 33:-0.5 34:-0.75 35:-1 36:-1 37:-1 38:-0.75 39:-0.5 40:-0.75 
-0.53125 1:1 2:-0.5 3:0.452316 4:0.35809 5:-1 6:-1 7:-1 8:-1 9:-1 10:-1 11:-1 12:-1 13:-1 14:-0.75 15:-0.5 16:-0.75 17:-0.75 18:-0.5 19:-0.75 20:-1 21:-1 22:-1 23:-0.75 24:-0.5 25:-0.75 26:-0.75 27:-0.5 28:-0.75 29:-0.75 30:-0.5 31:-0.75 32:-1 33:-1 34:-1 35:-0.75 36:-0.5 37:-0.75 38:-1 39:-1 40:-1 
-0.53125 1:1 2:-0.5 3:0.452316 4:0.35809 5:-1 6:-1 7:-1 8:-0.75 9:-0.5 10:-0.75 11:-0.75 12:-0.5 13:-0.75 14:-0.75 15:-0.5 16:-0.75 17:-1 18:-1 19:-1 20:-1 21:-1 22:-1 23:-1 24:-1 25:-1 26:-0.75 27:-0.5 28:-0.75 29:-0.75 30:-0.5 31:-0.75 32:-1 33:-1 34:-1 35:-0.75 36:-0.5 37:-0.75 38:-1 39:-1 40:-1 
-0.53125 1:1 2:-0.5 3:0.452316 4:0.35809 5:-1 6:-1 7:-1 8:-1 9:-1 10:-1 11:-1 12:-1 13:-1 14:-0.75 15:-0.5 16:-0.75 17:-0.75 18:-0.5 19:-0.75 20:-0.75 21:-0.5 22:-0.75 23:-1 24:-1 25:-1 26:-1 27:-1 28:-1 29:-0.75 30:-0.5 31:-0.75 32:-0.75 33:-0.5 34:-0.75 35:-1 36:-1 37:-1 38:-0.75 39:-0.5 40:-0.75 
-0.53125 1:1 2:-0.5 3:0.452316 4:0.35809 5:-1 6:-1 7:-1 8:-0.75 9:-0.5 10:-0.75 11:-0.75 12:-0.5 13:-0.75 14:-1 15:-1 16:-1 17:-1 18:-1 19:-1 20:-0.75 21:-0.5 22:-0.75 23:-1 24:-1 25:-1 26:-0.75 27:-0.5 28:-0.75 29:-1 30:-1 31:-1 32:-0.75 33:-0.5 34:-0.75 35:-0.75 36:-0.5 37:-0.75 38:-1 39:-1 40:-1 
-0.53125 1:1 2:-0.5 3:0.452316 4:0.35809 5:-1 6:-1 7:-1 8:-1 9:-1 10:-1 11:-0.75 12:-0.5 13:-0.75 14:-0.75 15:-0.5 16:-0.75 17:-0.75 18:-0.5 19:-0.75 20:-1 21:-1 22:-1 23:-1 24:-1 25:-1 26:-0.75 27:-0.5 28:-0.75 29:-0.75 30:-0.5 31:-0.75 32:-1 33:-1 34:-1 35:-1 36:-1 37:-1 38:-0.75 39:-0.5 40:-0.75 
-0.3942749999999933 1:1 2:-0.5 3:0.476839 4:0.38214 5:-1 6:-1 7:-1 8:-1 9:-1 10:-1 11:-1 12:-1 13:-1 14:-1 15:-1 16:-1 17:-1 18:-1 19:-1 21:1 22:-0.25 23:-0.75 26:-0.75 27:1 28:-0.25 29:-0.5 30:-0.5 31:-0.75 32:-1 33:-1 34:-1 36:-0.5 38:-0.75 39:-0.5 40:-0.75 
-0.3942749999999933 1:1 2:-0.5 3:0.476839 4:0.38214 6:-0.5 9:1 10:-0.25 11:-1 12:-1 13:-1 14:-0.75 17:-1 18:-1 19:-1 20:-1 21:-1 22:-1 23:-1 24:-1 25:-1 26:-1 27:-1 28:-1 29:-0.75 30:-0.5 31:-0.75 32:-1 33:-1 34:-1 35:-0.5 36:-0.5 37:-0.75 38:-0.75 39:1 40:-0.25 
-0.3942749999999933 1:1 2:-0.5 3:0.476839 4:0.38214 5:-0.5 6:-0.5 7:-0.75 9:-0.5 11:-1 12:-1 13:-1 14:-0.75 15:-0.5 16:-0.75 17:-1 18:-1 19:-1 21:1 22:-0.25 23:-1 24:-1 25:-1 26:-0.75 29:-1 30:-1 31:-1 32:-1 33:-1 34:-1 35:-0.75 36:1 37:-0.25 38:-1 39:-1 40:-1 
-0.3942749999999933 1:1 2:-0.5 3:0.476839 4:0.38214 5:-0.75 8:-1 9:-1 10:-1 11:-0.5 12:-0.5 13:-0.75 15:1 16:-0.25 18:-0.5 20:-1 21:-1 22:-1 23:-0.75 24:1 25:-0.25 26:-1 27:-1 28:-1 29:-0.75 30:-0.5 31:-0.75 32:-1 33:-1 34:-1 35:-1 36:-1 37:-1 38:-1 39:-1 40:-1 
-0.3942749999999933 1:1 2:-0.5 3:0.476839 4:0.38214 5:-0.75 6:-0.5 7:-0.75 8:-0.75 9:1 10:-0.25 11:-1 12:-1 13:-1 14:-1 15:-1 16:-1 17:-1 18:-1 19:-1 21:1 22:-0.25 23:-0.75 26:-0.5 27:-0.5 28:-0.75 29:-1 30:-1 31:-1 33:-0.5 35:-1 36:-1 37:-1 38:-1 39:-1 40:-1 
-0.3942749999999933 1:1 2:-0.5 3:0.476839 4:0.38214 5:-1 6:-1 7:-1 9:1 10:-0.25 11:-1 12:-1 13:-1 14:-0.75 17:-1 18:-1 19:-1 20:-1 21:-1 22:-1 23:-1 24:-1 25:-1 26:-1 27:-1 28:-1 30:-0.5 32:-0.5 33:-0.5 34:-0.75 35:-0.75 36:-0.5 37:-0.75 38:-0.75 39:1 40:-0.25 
-0.3942749999999933 1:1 2:-0.5 3:0.476839 4:0.38214 5:-1 6:-1 7:-1 8:-0.75 11:-1 12:-1 13:-1 14:-1 15:-1 16:-1 17:-0.75 18:-0.5 19:-0.75 20:-1 21:-1 22:-1 23:-1 24:-1 25:-1 27:1 28:-0.25 29:-0.75 30:1 31:-0.25 32:-1 33:-1 34:-1 36:-0.5 38:-0.5 39:-0.5 40:-0.75 
-0.3942749999999933 1:1 2:-0.5 3:0.476839 4:0.38214 5:-1 6:-1 7:-1 8:-0.75 9:-0.5 10:-0.75 11:-0.75 14:-1 15:-1 16:-1 17:-1 18:-1 19:-1 21:-0.5 24:1 25:-0.25 26:-0.5 27:-0.5 28:-0.75 29:-1 30:-1 31:-1 32:-1 33:-1 34:-1 35:-1 36:-1 37:-1 38:-0.75 39:1 40:-0.25 
-0.3942749999999933 1:1 2:-0.5 3:0.476839 4:0.38214 5:-1 6:-1 7:-1 8:-1 9:-1 10:-1 11:-0.75 12:1 13:-0.25 14:-0.75 18:-0.5 20:-1 21:-1 22:-1 24:1 25:-0.25 26:-0.5 27:-0.5 28:-0.75 29:-0.75 30:-0.5 31:-0.75 32:-1 33:-1 34:-1 35:-1 36:-1 37:-1 38:-1 39:-1 40:-1 
-0.3942749999999933 1:1 2:-0.5 3:0.476839 4:0.38214 5:-1 6:-1 7:-1 8:-1 9:-1 10:-1 11:-0.5 12:-0.5 13:-0.75 14:-0.75 15:-0.5 16:-0.75 17:-0.75 20:-1 21:-1 22:-1 23:-1 24:-1 25:-1 27:-0.5 29:-1 30:-1 31:-1 33:1 34:-0.25 35:-0.75 36:1 37:-0.25 38:-1 39:-1 40:-1 
-0.3942749999999933 1:1 2:-0.5 3:0.476839 4:0.38214 5:-1 6:-1 7:-1 8:-0.75 9:-0.5 10:-0.75 11:-1 12:-1 13:-1 14:-1 15:-1 16:-1 17:-0.5 18:-0.5 19:-0.75 21:-0.5 23:-0.75 24:1 25:-0.25 26:-1 27:-1 28:-1 29:-1 30:-1 31:-1 32:-1 33:-1 34:-1 36:1 37:-0.25 38:-0.75 
-0.3942749999999933 1:1 2:-0.5 3:0.476839 4:0.38214 5:-0.75 6:1 7:-0.25 8:-1 9:-1 10:-1 11:-1 12:-1 13:-1 15:-0.5 17:-0.75 20:-1 21:-1 22:-1 23:-1 24:-1 25:-1 27:1 28:-0.25 29:-0.75 30:-0.5 31:-0.75 32:-1 33:-1 34:-1 35:-1 36:-1 37:-1 38:-0.5 39:-0.5 40:-0.75 
-0.3942749999999933 1:1 2:-0.5 3:0.476839 4:0.38214 5:-0.75 6:-0.5 7:-0.75 8:-1 9:-1 10:-1 11:-1 12:-1 13:-1 14:-1 15:-1 16:-1 17:-0.75 18:1 19:-0.25 20:-0.75 23:-0.5 24:-0.5 25:-0.75 27:1 28:-0.25 29:-1 30:-1 31:-1 32:-1 33:-1 34:-1 36:-0.5 38:-1 39:-1 40:-1 
-0.3942749999999933 1:1 2:-0.5 3:0.476839 4:0.38214 5:-1 6:-1 7:-1 8:-1 9:-1 10:-1 11:-0.75 12:-0.5 13:-0.75 14:-1 15:-1 16:-1 17:-0.5 18:-0.5 19:-0.75 20:-1 21:-1 22:-1 23:-0.75 24:1 25:-0.25 26:-1 27:-1 28:-1 30:-0.5 32:-1 33:-1 34:-1 35:-0.75 39:1 40:-0.25 
-0.3942749999999933 1:1 2:-0.5 3:0.476839 4:0.38214 5:-0.5 6:-0.5 7:-0.75 8:-1 9:-1 10:-1 11:-1 12:-1 13:-1 15:1 16:-0.25 17:-1 18:-1 19:-1 20:-1 21:-1 22:-1 23:-1 24:-1 25:-1 26:-0.75 27:-0.5 28:-0.75 29:-0.75 30:1 31:-0.25 32:-0.75 36:-0.5 38:-1 39:-1 40:-1 
-0.3942749999999933 1:1 2:-0.5 3:0.476839 4:0.38214 5:-0.5 6:-0.5 7:-0.75 9:-0.5 11:-1 12:-1 13:-1 14:-1 15:-1 16:-1 18:1 19:-0.25 20:-0.75 21:1 22:-0.25 23:-1 24:-1 25:-1 26:-1 27:-1 28:-1 29:-1 30:-1 31:-1 32:-1 33:-1 34:-1 35:-0.75 38:-0.75 39:-0.5 40:-0.75 
-0.3942749999999933 1:1 2:-0.5 3:0.476839 4:0.38214 5:-1 6:-1 7:-1 8:-1 9:-1 10:-1 11:-0.5 12:-0.5 13:-0.75 14:-1 15:-1 16:-1 17:-0.75 20:-0.75 21:1 22:-0.25 23:-1 24:-1 25:-1 26:-1 27:-1 28:-1 30:-0.5 32:-0.75 33:-0.5 34:-0.75 35:-1 36:-1 37:-1 39:1 40:-0.25 
-0.3942749999999933 1:1 2:-0.5 3:0.476839 4:0.38214 5:-1 6:-1 7:-1 8:-1 9:-1 10:-1 11:-0.75 12:-0.5 13:-0.75 15:-0.5 17:-1 18:-1 19:-1 21:1 22:-0.25 23:-1 24:-1 25:-1 26:-0.75 27:1 28:-0.25 29:-1 30:-1 31:-1 32:-0.75 35:-0.5 36:-0.5 37:-0.75 38:-1 39:-1 40:-1 
-0.3942749999999933 1:1 2:-0.5 3:0.476839 4:0.38214 5:-1 6:-1 7:-1 8:-1 9:-1 10:-1 11:-0.75 12:-0.5 13:-0.75 15:-0.5 17:-1 18:-1 19:-1 20:-1 21:-1 22:-1 23:-1 24:-1 25:-1 27:1 28:-0.25 29:-0.75 30:1 31:-0.25 32:-1 33:-1 34:-1 35:-0.5 36:-0.5 37:-0.75 38:-0.75 
-0.3942749999999933 1:1 2:-0.5 3:0.476839 4:0.38214 5:-1 6:-1 7:-1 8:-1 9:-1 10:-1 11:-1 12:-1 13:-1 14:-0.5 15:-0.5 16:-0.75 17:-1 18:-1 19:-1 21:1 22:-0.25 23:-0.75 26:-0.75 27:-0.5 28:-0.75 30:-0.5 32:-0.75 33:1 34:-0.25 35:-1 36:-1 37:-1 38:-1 39:-1 40:-1 
-0.3942749999999933 1:1 2:-0.5 3:0.476839 4:0.38214 6:-0.5 8:-1 9:-1 10:-1 11:-1 12:-1 13:-1 14:-0.75 15:1 16:-0.25 18:1 19:-0.25 20:-1 21:-1 22:-1 23:-0.75 26:-1 27:-1 28:-1 29:-0.75 30:-0.5 31:-0.75 32:-1 33:-1 34:-1 35:-1 36:-1 37:-1 38:-0.5 39:-0.5 40:-0.75 
-0.3942749999999933 1:1 2:-0.5 3:0.476839 4:0.38214 5:-1 6:-1 7:-1 8:-1 9:-1 10:-1 11:-1 12:-1 13:-1 15:1 16:-0.25 17:-1 18:-1 19:-1 20:-0.75 21:1 22:-0.25 24:-0.5 26:-1 27:-1 28:-1 29:-0.5 30:-0.5 31:-0.75 32:-0.75 33:-0.5 34:-0.75 35:-0.75 38:-1 39:-1 40:-1 
-0.3942749999999933 1:1 2:-0.5 3:0.476839 4:0.38214 5:-1 6:-1 7:-1 8:-1 9:-1 10:-1 11:-1 12:-1 13:-1 15:-0.5 17:-1 18:-1 19:-1 20:-0.75 21:-0.5 22:-0.75 23:-1 24:-1 25:-1 27:1 28:-0.25 29:-1 30:-1 31:-1 32:-0.75 35:-0.75 36:1 37:-0.25 38:-0.5 39:-0.5 40:-0.75 
-0.3942749999999933 1:1 2:-0.5 3:0.476839 4:0.38214 6:1 7:-0.25 8:-0.75 11:-1 12:-1 13:-1 14:-1 15:-1 16:-1 17:-1 18:-1 19:-1 21:-0.5 23:-1 24:-1 25:-1 26:-0.75 27:1 28:-0.25 29:-1 30:-1 31:-1 32:-0.75 33:-0.5 34:-0.75 35:-1 36:-1 37:-1 38:-0.5 39:-0.5 40:-0.75 
-0.3942749999999933 1:1 2:-0.5 3:0.476839 4:0.38214 5:-1 6:-1 7:-1 8:-0.5 9:-0.5 10:-0.75 11:-1 12:-1 13:-1 14:-0.75 15:-0.5 16:-0.75 17:-0.75 20:-1 21:-1 22:-1 24:1 25:-0.25 26:-1 27:-1 28:-1 29:-0.75 30:1 31:-0.25 33:-0.5 35:-1 36:-1 37:-1 38:-1 39:-1 40:-1 
-0.3942749999999933 1:1 2:-0.5 3:0.476839 4:0.38214 5:-1 6:-1 7:-1 8:-1 9:-1 10:-1 11:-0.75 12:-0.5 13:-0.75 14:-1 15:-1 16:-1 17:-0.75 18:1 19:-0.25 21:-0.5 23:-0.5 24:-0.5 25:-0.75 26:-0.75 30:1 31:-0.25 32:-1 33:-1 34:-1 35:-1 36:-1 37:-1 38:-1 39:-1 40:-1 
-0.3942749999999933 1:1 2:-0.5 3:0.476839 4:0.38214 6:1 7:-0.25 8:-0.75 9:1 10:-0.25 11:-0.75 12:-0.5 13:-0.75 14:-1 15:-1 16:-1 17:-1 18:-1 19:-1 20:-1 21:-1 22:-1 23:-1 24:-1 25:-1 26:-0.5 27:-0.5 28:-0.75 29:-1 30:-1 31:-1 33:-0.5 35:-1 36:-1 37:-1 38:-0.75 
-0.3942749999999933 1:1 2:-0.5 3:0.476839 4:0.38214 5:-0.75 9:-0.5 11:-1 12:-1 13:-1 14:-1 15:-1 16:-1 17:-1 18:-1 19:-1 21:1 22:-0.25 23:-1 24:-1 25:-1 26:-0.75 27:-0.5 28:-0.75 29:-0.75 30:1 31:-0.25 32:-1 33:-1 34:-1 35:-1 36:-1 37:-1 38:-0.5 39:-0.5 40:-0.75 
-0.3942749999999933 1:1 2:-0.5 3:0.476839 4:0.38214 5:-0.5 6:-0.5 7:-0.75 9:-0.5 11:-0.75 12:1 13:-0.25 14:-1 15:-1 16:-1 17:-1 18:-1 19:-1 21:1 22:-0.25 23:-0.75 24:-0.5 25:-0.75 26:-0.75 29:-1 30:-1 31:-1 32:-1 33:-1 34:-1 35:-1 36:-1 37:-1 38:-1 39:-1 40:-1 
-0.3942749999999933 1:1 2:-0.5 3:0.476839 4:0.38214 5:-1 6:-1 7:-1 8:-1 9:-1 10:-1 12:1 13:-0.25 14:-0.75 17:-1 18:-1 19:-1 20:-0.5 21:-0.5 22:-0.75 23:-0.75 24:-0.5 25:-0.75 26:-1 27:-1 28:-1 29:-1 30:-1 31:-1 32:-0.75 33:1 34:-0.25 36:-0.5 38:-1 39:-1 40:-1 
0.3456505593680816 1:1 2:-0.5 3:0.512262 4:0.37931 5:-1 6:-1 7:-1 8:-1 9:-1 10:-1 12:1 13:-0.25 15:1 17:-1 18:-1 19:-1 20:-0.75 21:-0.5 22:-0.25 23:-1 24:-1 25:-1 26:-1 27:-1 28:-1 29:-1 30:-1 31:-1 32:-0.75 33:-0.5 35:-0.75 36:-0.5 37:-0.25 38:-0.5 39:-0.5 40:-0.25 
0.3456505593680816 1:1 2:-0.5 3:0.512262 4:0.37931 5:-1 6:-1 7:-1 8:-0.5 9:-0.5 10:-0.25 12:1 14:-0.75 15:-0.5 17:-1 18:-1 19:-1 21:1 22:-0.25 23:-1 24:-1 25:-1 26:-1 27:-1 28:-1 29:-0.75 30:-0.5 31:-0.25 32:-1 33:-1 34:-1 35:-0.75 36:-0.5 37:-0.25 38:-1 39:-1 40:-1 
0.3459937499999981 1:1 2:-0.5 3:0.512262 4:0.37931 5:-1 6:-1 7:-1 8:-1 9:-1 10:-1 11:-0.5 12:-0.5 13:-0.25 14:-1 15:-1 16:-1 17:-1 18:-1 19:-1 20:-0.75 21:-0.5 22:-0.25 23:-1 24:-1 25:-1 27:1 28:-0.25 29:-0.75 30:-0.5 32:-0.75 33:-0.5 34:-0.25 36:1 38:-1 39:-1 40:-1 
0.3459937499999981 1:1 2:-0.5 3:0.512262 4:0.37931 5:-1 6:-1 7:-1 8:-0.75 9:-0.5 10:-0.25 12:1 13:-0.25 14:-1 15:-1 16:-1 17:-1 18:-1 19:-1 20:-1 21:-1 22:-1 24:1 26:-0.5 27:-0.5 28:-0.25 29:-1 30:-1 31:-1 32:-0.75 33:-0.5 34:-0.25 35:-0.75 36:-0.5 38:-1 39:-1 40:-1 
0.3459992308400537 1:1 2:-0.5 3:0.512262 4:0.37931 5:-1 6:-1 7:-1 8:-0.75 9:-0.5 11:-0.75 12:-0.5 13:-0.25 14:-0.5 15:-0.5 16:-0.25 18:1 20:-1 21:-1 22:-1 23:-1 24:-1 25:-1 26:-0.75 27:-0.5 28:-0.25 29:-1 30:-1 31:-1 32:-1 33:-1 34:-1 35:-1 36:-1 37:-1 39:1 40:-0.25 
0.346149999999998 1:1 2:-0.5 3:0.512262 4:0.37931 5:-1 6:-1 7:-1 9:1 10:-0.25 11:-1 12:-1 13:-1 14:-0.75 15:-0.5 16:-0.25 17:-0.75 18:-0.5 19:-0.25 20:-1 21:-1 22:-1 23:-1 24:-1 25:-1 26:-1 27:-1 28:-1 30:1 32:-0.5 33:-0.5 34:-0.25 35:-0.75 36:-0.5 38:-1 39:-1 40:-1 
0.346149999999998 1:1 2:-0.5 3:0.512262 4:0.37931 5:-1 6:-1 7:-1 8:-0.75 9:-0.5 10:-0.25 11:-1 12:-1 13:-1 14:-0.5 15:-0.5 16:-0.25 17:-1 18:-1 19:-1 20:-1 21:-1 22:-1 23:-1 24:-1 25:-1 26:-1 27:-1 28:-1 30:1 31:-0.25 32:-0.75 33:-0.5 36:1 38:-0.75 39:-0.5 40:-0.25 
0.346149999999998 1:1 2:-0.5 3:0.512262 4:0.37931 5:-0.5 6:-0.5 7:-0.25 8:-0.75 9:-0.5 10:-0.25 11:-1 12:-1 13:-1 14:-0.75 15:-0.5 17:-1 18:-1 19:-1 21:1 22:-0.25 24:1 26:-1 27:-1 28:-1 29:-1 30:-1 31:-1 32:-1 33:-1 34:-1 35:-0.75 36:-0.5 37:-0.25 38:-1 39:-1 40:-1 
0.346149999999998 1:1 2:-0.5 3:0.512262 4:0.37931 5:-1 6:-1 7:-1 8:-0.75 9:-0.5 10:-0.25 11:-1 12:-1 13:-1 14:-1 15:-1 16:-1 17:-0.75 18:-0.5 20:-1 21:-1 22:-1 24:1 26:-1 27:-1 28:-1 30:1 31:-0.25 32:-0.5 33:-0.5 34:-0.25 35:-0.75 36:-0.5 37:-0.25 38:-1 39:-1 40:-1 
0.346149999999998 1:1 2:-0.5 3:0.512262 4:0.37931 5:-1 6:-1 7:-1 8:-1 9:-1 10:-1 12:1 13:-0.25 14:-1 15:-1 16:-1 17:-1 18:-1 19:-1 20:-0.75 21:-0.5 22:-0.25 23:-0.75 24:-0.5 25:-0.25 26:-1 27:-1 28:-1 30:1 32:-0.75 33:-0.5 35:-0.5 36:-0.5 37:-0.25 38:-1 39:-1 40:-1 
0.346149999999998 1:1 2:-0.5 3:0.512262 4:0.37931 5:-0.75 6:-0.5 7:-0.25 8:-1 9:-1 10:-1 11:-1 12:-1 13:-1 15:1 16:-0.25 17:-1 18:-1 19:-1 21:1 23:-0.5 24:-0.5 25:-0.25 26:-0.75 27:-0.5 29:-1 30:-1 31:-1 32:-1 33:-1 34:-1 35:-1 36:-1 37:-1 38:-0.75 39:-0.5 40:-0.25 
0.346149999999998 1:1 2:-0.5 3:0.512262 4:0.37931 5:-1 6:-1 7:-1 8:-0.75 9:-0.5 10:-0.25 12:1 13:-0.25 14:-0.75 15:-0.5 16:-0.25 17:-1 18:-1 19:-1 20:-1 21:-1 22:-1 23:-0.75 24:-0.5 26:-1 27:-1 28:-1 29:-0.5 30:-0.5 31:-0.25 33:1 35:-1 36:-1 37:-1 38:-1 39:-1 40:-1 
0.346149999999998 1:1 2:-0.5 3:0.512262 4:0.37931 5:-0.5 6:-0.5 7:-0.25 8:-1 9:-1 10:-1 11:-1 12:-1 13:-1 14:-1 15:-1 16:-1 18:1 19:-0.25 20:-0.75 21:-0.5 22:-0.25 24:1 26:-1 27:-1 28:-1 29:-0.75 30:-0.5 31:-0.25 32:-0.75 33:-0.5 35:-1 36:-1 37:-1 38:-1 39:-1 40:-1 
0.346149999999998 1:1 2:-0.5 3:0.512262 4:0.37931 6:1 8:-1 9:-1 10:-1 12:1 13:-0.25 14:-1 15:-1 16:-1 17:-0.5 18:-0.5 19:-0.25 20:-1 21:-1 22:-1 23:-1 24:-1 25:-1 26:-1 27:-1 28:-1 29:-0.75 30:-0.5 31:-0.25 32:-0.75 33:-0.5 35:-1 36:-1 37:-1 38:-0.75 39:-0.5 40:-0.25 
0.346149999999998 1:1 2:-0.5 3:0.512262 4:0.37931 5:-0.75 6:-0.5 7:-0.25 8:-1 9:-1 10:-1 11:-1 12:-1 13:-1 14:-0.75 15:-0.5 16:-0.25 17:-1 18:-1 19:-1 20:-1 21:-1 22:-1 23:-0.5 24:-0.5 25:-0.25 26:-1 27:-1 28:-1 29:-1 30:-1 31:-1 33:1 34:-0.25 35:-0.75 36:-0.5 39:1 
0.346149999999998 1:1 2:-0.5 3:0.512262 4:0.37931 5:-0.75 6:-0.5 7:-0.25 9:1 10:-0.25 11:-1 12:-1 13:-1 14:-0.75 15:-0.5 17:-1 18:-1 19:-1 20:-1 21:-1 22:-1 23:-1 24:-1 25:-1 26:-1 27:-1 28:-1 29:-1 30:-1 31:-1 32:-0.5 33:-0.5 34:-0.25 36:1 38:-0.75 39:-0.5 40:-0.25 
0.346149999999998 1:1 2:-0.5 3:0.512262 4:0.37931 6:1 7:-0.25 8:-0.75 9:-0.5 10:-0.25 11:-1 12:-1 13:-1 14:-1 15:-1 16:-1 17:-0.5 18:-0.5 19:-0.25 20:-1 21:-1 22:-1 23:-1 24:-1 25:-1 27:1 29:-1 30:-1 31:-1 32:-0.75 33:-0.5 35:-1 36:-1 37:-1 38:-0.75 39:-0.5 40:-0.25 
0.346149999999998 1:1 2:-0.5 3:0.512262 4:0.37931 5:-1 6:-1 7:-1 8:-0.75 9:-0.5 10:-0.25 11:-1 12:-1 13:-1 14:-0.75 15:-0.5 17:-1 18:-1 19:-1 20:-1 21:-1 22:-1 23:-0.5 24:-0.5 25:-0.25 26:-1 27:-1 28:-1 30:1 33:1 34:-0.25 35:-0.75 36:-0.5 37:-0.25 38:-1 39:-1 40:-1 
0.346149999999998 1:1 2:-0.5 3:0.512262 4:0.37931 6:1 8:-0.5 9:-0.5 10:-0.25 11:-1 12:-1 13:-1 14:-0.75 15:-0.5 17:-1 18:-1 19:-1 20:-1 21:-1 22:-1 24:1 25:-0.25 26:-1 27:-1 28:-1 29:-1 30:-1 31:-1 32:-1 33:-1 34:-1 35:-0.75 36:-0.5 37:-0.25 38:-0.75 39:-0.5 40:-0.25 
0.346149999999998 1:1 2:-0.5 3:0.512262 4:0.37931 5:-0.75 6:-0.5 8:-0.75 9:-0.5 10:-0.25 12:1 14:-1 15:-1 16:-1 17:-1 18:-1 19:-1 20:-0.75 21:-0.5 22:-0.25 23:-1 24:-1 25:-1 26:-1 27:-1 28:-1 30:1 31:-0.25 32:-1 33:-1 34:-1 35:-1 36:-1 37:-1 38:-0.5 39:-0.5 40:-0.25 
0.346149999999998 1:1 2:-0.5 3:0.512262 4:0.37931 5:-1 6:-1 7:-1 8:-1 9:-1 10:-1 11:-1 12:-1 13:-1 14:-0.5 15:-0.5 16:-0.25 17:-1 18:-1 19:-1 21:1 23:-1 24:-1 25:-1 26:-1 27:-1 28:-1 29:-0.75 30:-0.5 31:-0.25 32:-0.75 33:-0.5 34:-0.25 35:-0.75 36:-0.5 39:1 40:-0.25 
0.346149999999998 1:1 2:-0.5 3:0.512262 4:0.37931 5:-1 6:-1 7:-1 8:-1 9:-1 10:-1 11:-1 12:-1 13:-1 14:-0.5 15:-0.5 16:-0.25 17:-1 18:-1 19:-1 21:1 23:-1 24:-1 25:-1 27:1 28:-0.25 29:-0.75 30:-0.5 31:-0.25 32:-0.75 33:-0.5 35:-1 36:-1 37:-1 38:-0.75 39:-0.5 40:-0.25 
0.346149999999998 1:1 2:-0.5 3:0.512262 4:0.37931 5:-1 6:-1 7:-1 8:-1 9:-1 10:-1 11:-0.5 12:-0.5 13:-0.25 14:-1 15:-1 16:-1 17:-1 18:-1 19:-1 21:1 22:-0.25 23:-1 24:-1 25:-1 26:-0.75 27:-0.5 28:-0.25 29:-1 30:-1 31:-1 32:-0.75 33:-0.5 35:-0.75 36:-0.5 37:-0.25 39:1 
0.346149999999998 1:1 2:-0.5 3:0.512262 4:0.37931 5:-1 6:-1 7:-1 9:1 11:-1 12:-1 13:-1 14:-1 15:-1 16:-1 17:-1 18:-1 19:-1 20:-0.5 21:-0.5 22:-0.25 23:-1 24:-1 25:-1 26:-1 27:-1 28:-1 30:1 31:-0.25 32:-0.75 33:-0.5 35:-0.75 36:-0.5 37:-0.25 38:-0.75 39:-0.5 40:-0.25 
0.346149999999998 1:1 2:-0.5 3:0.512262 4:0.37931 5:-1 6:-1 7:-1 8:-1 9:-1 10:-1 11:-0.75 12:-0.5 14:-1 15:-1 16:-1 17:-1 18:-1 19:-1 20:-1 21:-1 22:-1 23:-0.75 24:-0.5 25:-0.25 26:-1 27:-1 28:-1 30:1 33:1 34:-0.25 35:-0.75 36:-0.5 37:-0.25 38:-0.5 39:-0.5 40:-0.25 
0.346149999999998 1:1 2:-0.5 3:0.512262 4:0.37931 5:-0.75 6:-0.5 8:-0.75 9:-0.5 10:-0.25 11:-1 12:-1 13:-1 15:1 16:-0.25 17:-1 18:-1 19:-1 20:-0.75 21:-0.5 22:-0.25 23:-1 24:-1 25:-1 26:-1 27:-1 28:-1 29:-1 30:-1 31:-1 32:-1 33:-1 34:-1 36:1 38:-0.5 39:-0.5 40:-0.25 
0.346149999999998 1:1 2:-0.5 3:0.512262 4:0.37931 5:-0.75 6:-0.5 7:-0.25 8:-0.75 9:-0.5 11:-1 12:-1 13:-1 14:-1 15:-1 16:-1 17:-1 18:-1 19:-1 21:1 23:-1 24:-1 25:-1 26:-1 27:-1 28:-1 29:-0.5 30:-0.5 31:-0.25 32:-0.75 33:-0.5 34:-0.25 35:-1 36:-1 37:-1 39:1 40:-0.25 
0.346149999999998 1:1 2:-0.5 3:0.512262 4:0.37931 5:-1 6:-1 7:-1 8:-0.75 9:-0.5 11:-1 12:-1 13:-1 14:-0.5 15:-0.5 16:-0.25 17:-1 18:-1 19:-1 20:-0.75 21:-0.5 22:-0.25 23:-0.75 24:-0.5 25:-0.25 27:1 28:-0.25 29:-1 30:-1 31:-1 32:-1 33:-1 34:-1 36:1 38:-1 39:-1 40:-1 
0.346149999999998 1:1 2:-0.5 3:0.512262 4:0.37931 5:-0.5 6:-0.5 7:-0.25 8:-1 9:-1 10:-1 11:-1 12:-1 13:-1 15:1 16:-0.25 17:-0.75 18:-0.5 19:-0.25 20:-1 21:-1 22:-1 23:-1 24:-1 25:-1 26:-0.75 27:-0.5 28:-0.25 29:-1 30:-1 31:-1 33:1 35:-0.75 36:-0.5 38:-1 39:-1 40:-1 
0.346149999999998 1:1 2:-0.5 3:0.512262 4:0.37931 6:1 8:-0.75 9:-0.5 11:-1 12:-1 13:-1 15:1 16:-0.25 17:-1 18:-1 19:-1 20:-1 21:-1 22:-1 23:-0.75 24:-0.5 25:-0.25 26:-1 27:-1 28:-1 29:-0.75 30:-0.5 31:-0.25 32:-1 33:-1 34:-1 35:-1 36:-1 37:-1 38:-0.5 39:-0.5 40:-0.25 
-0.1542749999999984 1:1 2:-0.5 3:0.474114 4:0.345712 6:1 7:-0.25 8:-1 9:-1 10:-1 11:-1 12:-1 13:-1 17:-0.75 18:-0.5 19:-0.5 20:-1 21:-1 22:-1 23:-1 24:-1 25:-1 26:-0.5 28:-0.25 29:-0.75 30:-0.5 31:-0.5 32:-1 33:-1 34:-1 35:-1 36:-1 37:-1 38:-0.75 39:-0.5 
-0.1542749999999984 1:1 2:-0.5 3:0.474114 4:0.345712 5:-1 6:-1 7:-1 9:1 10:-0.25 11:-0.75 12:-0.5 14:-1 15:-1 16:-1 17:-1 18:-1 19:-1 20:-0.5 22:-0.25 23:-1 24:-1 25:-1 29:-0.75 30:-0.5 31:-0.5 32:-0.75 33:-0.5 34:-0.5 35:-1 36:-1 37:-1 38:-1 39:-1 40:-1 
-0.1542749999999984 1:1 2:-0.5 3:0.474114 4:0.345712 5:-0.75 6:-0.5 7:-0.5 8:-0.75 9:-0.5 10:-0.5 11:-1 12:-1 13:-1 14:-1 15:-1 16:-1 17:-1 18:-1 19:-1 20:-0.5 22:-0.25 24:1 25:-0.25 26:-0.75 27:-0.5 29:-1 30:-1 31:-1 32:-1 33:-1 34:-1 35:-1 36:-1 37:-1 
-0.1542749999999984 1:1 2:-0.5 3:0.474114 4:0.345712 5:-1 6:-1 7:-1 8:-1 9:-1 10:-1 11:-1 12:-1 13:-1 14:-0.75 15:-0.5 16:-0.5 17:-1 18:-1 19:-1 20:-1 21:-1 22:-1 26:-0.5 28:-0.25 29:-0.75 30:-0.5 31:-0.5 32:-0.75 33:-0.5 35:-1 36:-1 37:-1 39:1 40:-0.25 
-0.1542749999999984 1:1 2:-0.5 3:0.474114 4:0.345712 5:-1 6:-1 7:-1 8:-0.75 9:-0.5 14:-1 15:-1 16:-1 17:-0.75 18:-0.5 19:-0.5 20:-0.5 22:-0.25 24:1 25:-0.25 26:-1 27:-1 28:-1 29:-0.75 30:-0.5 31:-0.5 32:-1 33:-1 34:-1 35:-1 36:-1 37:-1 38:-1 39:-1 40:-1 
-0.1542749999999984 1:1 2:-0.5 3:0.474114 4:0.345712 5:-1 6:-1 7:-1 9:1 10:-0.25 14:-0.5 16:-0.25 17:-1 18:-1 19:-1 20:-1 21:-1 22:-1 23:-0.75 24:-0.5 25:-0.5 26:-0.75 27:-0.5 28:-0.5 29:-1 30:-1 31:-1 32:-0.75 33:-0.5 35:-1 36:-1 37:-1 38:-1 39:-1 40:-1 
-0.1542749999999984 1:1 2:-0.5 3:0.474114 4:0.345712 9:1 10:-0.25 11:-1 12:-1 13:-1 14:-1 15:-1 16:-1 17:-0.75 18:-0.5 20:-0.75 21:-0.5 22:-0.5 23:-1 24:-1 25:-1 26:-1 27:-1 28:-1 29:-1 30:-1 31:-1 32:-0.75 33:-0.5 34:-0.5 35:-0.5 37:-0.25 38:-1 39:-1 40:-1 
-0.1542749999999984 1:1 2:-0.5 3:0.474114 4:0.345712 8:-0.75 9:-0.5 10:-0.5 12:1 13:-0.25 14:-0.5 16:-0.25 17:-1 18:-1 19:-1 20:-0.75 21:-0.5 23:-1 24:-1 25:-1 26:-1 27:-1 28:-1 29:-1 30:-1 31:-1 32:-1 33:-1 34:-1 35:-0.75 36:-0.5 37:-0.5 38:-1 39:-1 40:-1 
-0.1542749999999984 1:1 2:-0.5 3:0.474114 4:0.345712 5:-0.75 6:-0.5 8:-1 9:-1 10:-1 11:-1 12:-1 13:-1 14:-0.75 15:-0.5 16:-0.5 17:-0.75 18:-0.5 19:-0.5 23:-1 24:-1 25:-1 26:-1 27:-1 28:-1 29:-1 30:-1 31:-1 33:1 34:-0.25 35:-1 36:-1 37:-1 38:-0.5 40:-0.25 
-0.1542749999999984 1:1 2:-0.5 3:0.474114 4:0.345712 8:-0.75 9:-0.5 10:-0.5 11:-1 12:-1 13:-1 14:-1 15:-1 16:-1 17:-0.75 18:-0.5 20:-1 21:-1 22:-1 24:1 25:-0.25 26:-1 27:-1 28:-1 29:-0.5 31:-0.25 32:-1 33:-1 34:-1 35:-1 36:-1 37:-1 38:-0.75 39:-0.5 40:-0.5 
-0.1542749999999984 1:1 2:-0.5 3:0.474114 4:0.345712 5:-0.75 6:-0.5 7:-0.5 8:-0.5 10:-0.25 11:-0.75 12:-0.5 14:-0.75 15:-0.5 16:-0.5 17:-1 18:-1 19:-1 20:-1 21:-1 22:-1 23:-1 24:-1 25:-1 26:-1 27:-1 28:-1 29:-1 30:-1 31:-1 32:-1 33:-1 34:-1 36:1 37:-0.25 
-0.1542749999999984 1:1 2:-0.5 3:0.474114 4:0.345712 5:-1 6:-1 7:-1 11:-0.75 12:-0.5 13:-0.5 14:-1 15:-1 16:-1 17:-1 18:-1 19:-1 20:-0.5 22:-0.25 23:-0.75 24:-0.5 25:-0.5 26:-1 27:-1 28:-1 29:-1 30:-1 31:-1 33:1 34:-0.25 35:-1 36:-1 37:-1 38:-0.75 39:-0.5 
-0.1542749999999984 1:1 2:-0.5 3:0.474114 4:0.345712 5:-0.75 6:-0.5 7:-0.5 8:-1 9:-1 10:-1 11:-0.75 12:-0.5 14:-1 15:-1 16:-1 17:-1 18:-1 19:-1 20:-0.5 22:-0.25 23:-1 24:-1 25:-1 27:1 28:-0.25 29:-0.75 30:-0.5 31:-0.5 35:-1 36:-1 37:-1 38:-1 39:-1 40:-1 
-0.1542749999999984 1:1 2:-0.5 3:0.474114 4:0.345712 5:-1 6:-1 7:-1 8:-0.5 10:-0.25 11:-1 12:-1 13:-1 14:-1 15:-1 16:-1 18:1 19:-0.25 20:-0.75 21:-0.5 23:-0.75 24:-0.5 25:-0.5 26:-1 27:-1 28:-1 29:-1 30:-1 31:-1 32:-1 33:-1 34:-1 35:-0.75 36:-0.5 37:-0.5 
-0.1542749999999984 1:1 2:-0.5 3:0.474114 4:0.345712 8:-0.75 9:-0.5 10:-0.5 11:-1 12:-1 13:-1 14:-1 15:-1 16:-1 17:-0.75 18:-0.5 19:-0.5 20:-1 21:-1 22:-1 23:-1 24:-1 25:-1 26:-1 27:-1 28:-1 30:1 31:-0.25 32:-1 33:-1 34:-1 35:-0.5 37:-0.25 38:-0.75 39:-0.5 
-0.1542749999999984 1:1 2:-0.5 3:0.474114 4:0.345712 8:-1 9:-1 10:-1 11:-1 12:-1 13:-1 14:-0.75 15:-0.5 16:-0.5 17:-0.75 18:-0.5 19:-0.5 20:-0.75 21:-0.5 23:-1 24:-1 25:-1 26:-1 27:-1 28:-1 29:-1 30:-1 31:-1 32:-1 33:-1 34:-1 35:-0.5 37:-0.25 39:1 40:-0.25 
-0.1542749999999984 1:1 2:-0.5 3:0.474114 4:0.345712 5:-0.75 6:-0.5 7:-0.5 8:-1 9:-1 10:-1 14:-0.75 15:-0.5 17:-1 18:-1 19:-1 21:1 22:-0.25 23:-1 24:-1 25:-1 26:-1 27:-1 28:-1 29:-1 30:-1 31:-1 32:-1 33:-1 34:-1 35:-0.75 36:-0.5 37:-0.5 38:-0.5 40:-0.25 
-0.1542749999999984 1:1 2:-0.5 3:0.474114 4:0.345712 5:-0.75 6:-0.5 8:-0.75 9:-0.5 10:-0.5 11:-0.75 12:-0.5 13:-0.5 15:1 16:-0.25 17:-1 18:-1 19:-1 20:-1 21:-1 22:-1 23:-1 24:-1 25:-1 26:-0.5 28:-0.25 29:-1 30:-1 31:-1 35:-1 36:-1 37:-1 38:-1 39:-1 40:-1 
-0.1542749999999984 1:1 2:-0.5 3:0.474114 4:0.345712 5:-1 6:-1 7:-1 8:-1 9:-1 10:-1 11:-0.5 13:-0.25 14:-1 15:-1 16:-1 17:-0.75 18:-0.5 19:-0.5 20:-1 21:-1 22:-1 23:-1 24:-1 25:-1 27:1 28:-0.25 29:-0.75 30:-0.5 35:-1 36:-1 37:-1 38:-0.75 39:-0.5 40:-0.5 
-0.1542749999999984 1:1 2:-0.5 3:0.474114 4:0.345712 5:-1 6:-1 7:-1 8:-1 9:-1 10:-1 11:-0.5 13:-0.25 14:-1 15:-1 16:-1 17:-0.75 18:-0.5 20:-0.75 21:-0.5 22:-0.5 23:-1 24:-1 25:-1 29:-1 30:-1 31:-1 33:1 34:-0.25 35:-1 36:-1 37:-1 38:-0.75 39:-0.5 40:-0.5 
-0.1542749999999984 1:1 2:-0.5 3:0.474114 4:0.345712 5:-1 6:-1 7:-1 8:-0.75 9:-0.5 10:-0.5 11:-0.75 12:-0.5 14:-1 15:-1 16:-1 17:-1 18:-1 19:-1 21:1 22:-0.25 23:-1 24:-1 25:-1 26:-1 27:-1 28:-1 32:-0.75 33:-0.5 34:-0.5 35:-1 36:-1 37:-1 38:-0.5 40:-0.25 
-0.1542749999999984 1:1 2:-0.5 3:0.474114 4:0.345712 5:-0.5 7:-0.25 8:-0.75 9:-0.5 10:-0.5 11:-0.75 12:-0.5 13:-0.5 14:-1 15:-1 16:-1 17:-1 18:-1 19:-1 21:1 22:-0.25 23:-1 24:-1 25:-1 26:-1 27:-1 28:-1 29:-1 30:-1 31:-1 32:-0.75 33:-0.5 38:-1 39:-1 40:-1 
-0.1542749999999984 1:1 2:-0.5 3:0.474114 4:0.345712 5:-1 6:-1 7:-1 8:-0.75 9:-0.5 10:-0.5 11:-1 12:-1 13:-1 14:-0.75 15:-0.5 17:-1 18:-1 19:-1 23:-1 24:-1 25:-1 26:-1 27:-1 28:-1 29:-0.75 30:-0.5 31:-0.5 33:1 34:-0.25 35:-1 36:-1 37:-1 38:-0.5 40:-0.25 
-0.1542749999999984 1:1 2:-0.5 3:0.474114 4:0.345712 5:-1 6:-1 7:-1 8:-1 9:-1 10:-1 11:-0.75 12:-0.5 13:-0.5 14:-1 15:-1 16:-1 17:-0.5 19:-0.25 20:-1 21:-1 22:-1 24:1 25:-0.25 26:-1 27:-1 28:-1 29:-0.75 30:-0.5 31:-0.5 35:-1 36:-1 37:-1 38:-0.75 39:-0.5 
-0.1542749999999984 1:1 2:-0.5 3:0.474114 4:0.345712 8:-0.75 9:-0.5 10:-0.5 12:1 13:-0.25 14:-1 15:-1 16:-1 17:-1 18:-1 19:-1 20:-1 21:-1 22:-1 23:-0.75 24:-0.5 26:-0.5 28:-0.25 29:-1 30:-1 31:-1 32:-1 33:-1 34:-1 35:-0.75 36:-0.5 37:-0.5 38:-1 39:-1 40:-1 
-0.1542749999999984 1:1 2:-0.5 3:0.474114 4:0.345712 6:1 7:-0.25 8:-1 9:-1 10:-1 11:-0.5 13:-0.25 14:-0.75 15:-0.5 17:-1 18:-1 19:-1 20:-1 21:-1 22:-1 23:-1 24:-1 25:-1 26:-0.75 27:-0.5 28:-0.5 32:-1 33:-1 34:-1 35:-1 36:-1 37:-1 38:-0.75 39:-0.5 40:-0.5 
-0.1542749999999984 1:1 2:-0.5 3:0.474114 4:0.345712 5:-0.75 6:-0.5 9:1 10:-0.25 11:-1 12:-1 13:-1 14:-1 15:-1 16:-1 17:-1 18:-1 19:-1 20:-1 21:-1 22:-1 23:-1 24:-1 25:-1 26:-0.75 27:-0.5 28:-0.5 32:-0.75 33:-0.5 34:-0.5 35:-1 36:-1 37:-1 38:-0.5 40:-0.25 
-0.1542749999999984 1:1 2:-0.5 3:0.474114 4:0.345712 5:-1 6:-1 7:-1 8:-1 9:-1 10:-1 11:-0.75 12:-0.5 13:-0.5 14:-1 15:-1 16:-1 17:-0.75 18:-0.5 19:-0.5 20:-1 21:-1 22:-1 23:-1 24:-1 25:-1 26:-0.5 28:-0.25 29:-0.75 30:-0.5 32:-1 33:-1 34:-1 36:1 37:-0.25 
-0.1542749999999984 1:1 2:-0.5 3:0.474114 4:0.345712 6:1 7:-0.25 8:-0.75 9:-0.5 11:-1 12:-1 13:-1 14:-1 15:-1 16:-1 17:-1 18:-1 19:-1 23:-1 24:-1 25:-1 26:-0.75 27:-0.5 28:-0.5 29:-0.75 30:-0.5 31:-0.5 32:-0.5 34:-0.25 35:-1 36:-1 37:-1 38:-1 39:-1 40:-1 
-0.1542749999999984 1:1 2:-0.5 3:0.474114 4:0.345712 5:-1 6:-1 7:-1 8:-0.5 10:-0.25 11:-1 12:-1 13:-1 17:-1 18:-1 19:-1 20:-1 21:-1 22:-1 23:-0.75 24:-0.5 25:-0.5 27:1 28:-0.25 29:-1 30:-1 31:-1 32:-1 33:-1 34:-1 35:-0.75 36:-0.5 37:-0.5 38:-0.75 39:-0.5 
0.1055250000000001 1:1 2:-0.5 3:0.746594 4:0.483643 5:-0.75 6:-0.5 7:-0.75 8:-0.5 9:-0.5 10:-0.5 11:-1 12:-1 13:-1 14:-1 15:-1 16:-1 17:-1 18:-1 19:-1 20:-1 21:-1 22:-1 23:-1 24:-1 25:-1 26:-0.5 27:1 28:-0.25 29:-0.75 30:-0.5 31:-0.5 33:-0.5 35:-0.75 36:-0.5 37:-0.75 38:-1 39:-1 40:-1 
0.1055250000000001 1:1 2:-0.5 3:0.746594 4:0.483643 5:-0.75 6:-0.5 7:-0.75 8:-0.5 9:1 10:-0.25 11:-0.5 12:-0.5 13:-0.5 14:-0.75 15:-0.5 16:-0.5 17:-1 18:-1 19:-1 21:-0.5 23:-1 24:-1 25:-1 26:-0.75 27:-0.5 28:-0.75 29:-1 30:-1 31:-1 32:-1 33:-1 34:-1 35:-1 36:-1 37:-1 38:-1 39:-1 40:-1 
0.1055250000000001 1:1 2:-0.5 3:0.746594 4:0.483643 5:-0.5 6:1 7:-0.25 8:-1 9:-1 10:-1 11:-0.75 12:-0.5 13:-0.75 14:-0.5 15:-0.5 16:-0.5 17:-1 18:-1 19:-1 20:-0.75 21:-0.5 22:-0.75 23:-1 24:-1 25:-1 27:-0.5 29:-1 30:-1 31:-1 32:-1 33:-1 34:-1 35:-1 36:-1 37:-1 38:-0.75 39:-0.5 40:-0.5 
0.1055250000000001 1:1 2:-0.5 3:0.746594 4:0.483643 5:-0.5 6:1 7:-0.25 9:-0.5 11:-1 12:-1 13:-1 14:-1 15:-1 16:-1 17:-1 18:-1 19:-1 20:-0.75 21:-0.5 22:-0.75 23:-1 24:-1 25:-1 26:-0.5 27:-0.5 28:-0.5 29:-0.75 30:-0.5 31:-0.5 32:-0.75 33:-0.5 34:-0.75 35:-1 36:-1 37:-1 38:-1 39:-1 40:-1 
0.1055250000000001 1:1 2:-0.5 3:0.746594 4:0.483643 6:-0.5 8:-1 9:-1 10:-1 11:-1 12:-1 13:-1 14:-0.75 15:-0.5 16:-0.75 17:-1 18:-1 19:-1 20:-1 21:-1 22:-1 23:-0.75 24:-0.5 25:-0.5 26:-0.75 27:-0.5 28:-0.75 29:-0.5 30:1 31:-0.25 32:-1 33:-1 34:-1 35:-1 36:-1 37:-1 38:-0.5 39:-0.5 40:-0.5 
0.1055250000000001 1:1 2:-0.5 3:0.746594 4:0.483643 5:-0.75 6:-0.5 7:-0.75 8:-1 9:-1 10:-1 11:-0.75 12:-0.5 13:-0.5 15:-0.5 17:-1 18:-1 19:-1 20:-0.75 21:-0.5 22:-0.75 23:-1 24:-1 25:-1 26:-1 27:-1 28:-1 29:-0.5 30:1 31:-0.25 32:-1 33:-1 34:-1 35:-1 36:-1 37:-1 38:-0.5 39:-0.5 40:-0.5 
0.1055250000000001 1:1 2:-0.5 3:0.746594 4:0.483643 5:-0.75 6:-0.5 7:-0.5 8:-0.75 9:-0.5 10:-0.75 11:-1 12:-1 13:-1 14:-1 15:-1 16:-1 18:-0.5 20:-0.75 21:-0.5 22:-0.75 23:-0.5 24:-0.5 25:-0.5 26:-1 27:-1 28:-1 29:-1 30:-1 31:-1 32:-0.5 33:1 34:-0.25 35:-1 36:-1 37:-1 38:-1 39:-1 40:-1 
0.1055250000000001 1:1 2:-0.5 3:0.746594 4:0.483643 5:-0.75 6:-0.5 7:-0.75 8:-1 9:-1 10:-1 11:-0.75 12:-0.5 13:-0.5 14:-1 15:-1 16:-1 17:-1 18:-1 19:-1 21:-0.5 23:-0.5 24:1 25:-0.25 26:-1 27:-1 28:-1 29:-0.75 30:-0.5 31:-0.75 32:-1 33:-1 34:-1 35:-0.5 36:-0.5 37:-0.5 38:-1 39:-1 40:-1 
